tree
version=v4
num_class=1
num_tree_per_iteration=1
label_index=0
max_feature_idx=80
objective=regression
feature_names=Column_0 Column_1 Column_2 Column_3 Column_4 Column_5 Column_6 Column_7 Column_8 Column_9 Column_10 Column_11 Column_12 Column_13 Column_14 Column_15 Column_16 Column_17 Column_18 Column_19 Column_20 Column_21 Column_22 Column_23 Column_24 Column_25 Column_26 Column_27 Column_28 Column_29 Column_30 Column_31 Column_32 Column_33 Column_34 Column_35 Column_36 Column_37 Column_38 Column_39 Column_40 Column_41 Column_42 Column_43 Column_44 Column_45 Column_46 Column_47 Column_48 Column_49 Column_50 Column_51 Column_52 Column_53 Column_54 Column_55 Column_56 Column_57 Column_58 Column_59 Column_60 Column_61 Column_62 Column_63 Column_64 Column_65 Column_66 Column_67 Column_68 Column_69 Column_70 Column_71 Column_72 Column_73 Column_74 Column_75 Column_76 Column_77 Column_78 Column_79 Column_80
feature_infos=[0:967] [0:38] [-2.4027955532073975:6.2306704521179199] [-4.0981550216674805:4.1769280433654785] [-2.3338918685913086:6.3645234107971191] [-2.5006940364837646:6.3170285224914551] [-3.7152440547943115:4.1220383644104004] [-8.5016574859619141:8.7411088943481445] [-15.922933578491211:22.679422378540039] [-17.222309112548828:15.607602119445801] [-4.7976527214050293:6.1387476921081543] [2:82] [1:12] [9:539] [-1.5491149425506592:16.679557800292969] [-0.78341156244277954:18.315713882446289] [-1.1610004901885986:18.873697280883789] [-1.6218166351318359:34.909160614013672] [-1.3479684591293335:29.343835830688477] [-1.5866464376449585:32.820552825927734] [-4.2125353813171387:4.9685125350952148] [-3.9259917736053467:5.0513620376586914] [-3.4187586307525635:1.9428008794784546] [-0.45013737678527832:3.2710428237915039] [-1.8102878332138062:3.2120814323425293] [-1.9718707799911499:2.6265406608581543] [-0.92235302925109863:5.8560590744018555] [-1.8589534759521484:3.0302972793579102] [-2.8158445358276367:4.6741185188293457] [-2.8568902015686035:2.4861364364624023] [-3.2201945781707764:2.4217503070831299] [-1.3367210626602173:0.69459503889083862] [-1.4850926399230957:0.18449655175209045] [-0.39122366905212402:2.0773355960845947] [-3.2146108150482178:4.3427481651306152] [-3.7663228511810303:3.6842210292816162] [-3.5736792087554932:4.3310580253601074] [-3.3595943450927734:4.403658390045166] [-3.9230029582977295:3.7411313056945801] [-4.6302809715270996:7.6622614860534668] [-4.6464858055114746:7.1674246788024902] [-3.5342254638671875:3.7212784290313721] [-3.5944356918334961:3.2647557258605957] [-3.6531722545623779:3.3871681690216064] [-3.6676347255706787:3.1523818969726562] [-3.7035608291625977:3.1180274486541748] [-3.4773633480072021:3.1287169456481934] [-3.205822229385376:3.5438313484191895] [-3.2245986461639404:3.0418837070465088] [-7.5079050064086914:7.6311988830566406] [-11.305152893066406:10.398472785949707] [-10.288495063781738:10.708996772766113] [-3.4628257751464844:3.7548398971557617] [-2.4978289604187012:3.8763604164123535] [-3.3851561546325684:3.7532415390014648] [-3.6440534591674805:3.4809925556182861] [-3.6054153442382812:2.3480703830718994] [-3.7098624706268311:3.01340651512146] [-3.8585028648376465:3.6645138263702393] [-3.3119025230407715:3.6437046527862549] [-9.9465141296386719:13.628499031066895] [-17.001487731933594:16.050237655639648] [-18.026924133300781:14.378052711486816] [-2.4435904026031494:2.7035641670227051] [-0.81056690216064453:5.5854992866516113] [-0.71860808134078979:10.483170509338379] [-0.78449887037277222:9.4214487075805664] [-4.1192350387573242:5.0808539390563965] [-4.5930638313293457:4.2255582809448242] [-1.3653578758239746:13.21418571472168] [-0.6186678409576416:15.16282844543457] [-1.016386866569519:16.480594635009766] [-1.6228584051132202:14.500116348266602] [-0.76034325361251831:19.953723907470703] [-1.1582671403884888:18.729955673217773] [-4.9244680404663086:95.331344604492188] [-4.9824347496032715:116.35324859619141] [-4.0708804130554199:28.463216781616211] [-4.0761113166809082:33.545871734619141] [-4.1710987091064453:81.566108703613281] [-4.0821852684020996:72.653984069824219]
tree_sizes=3529 3566 3581 3575 3526 3571 3540 3606 3520 3537 3551 3539 3553 3551 3562 3533 3562 3530 3590 3563 3510 3538 3510 3493 3522 3531 3523 3494 3520 3506 3572 3558 3553 3576 3579 3586 3526 3569 3582 3559 3525 3515 3526 3538 3515 3558 3527 3524 3564 3571 3547 3556 3530 3563 3572 3563 3547 3544 3545 3546 3562 3559 3554 3546 3563 3559 3564 3564 3544 3624 3581

Tree=0
num_leaves=31
num_cat=0
split_feature=8 8 9 15 9 8 0 0 39 8 62 62 40 71 9 30 62 9 53 24 66 22 30 14 8 37 40 9 25 20
split_gain=8965.51 3129.37 2155.34 1675.12 1215.53 1215.5 967.281 804.723 781.054 631.168 542.134 528.015 434.635 464.094 387.441 377.653 341.055 353.989 339.723 324.79 510.58 323.801 564.512 377.339 316.403 303.077 586.355 301.091 291.744 291.615
threshold=0.048614356666803367 -0.54689016938209523 0.15844070166349414 -0.10569281503558157 -0.050054965540766709 0.94609105587005626 56.500000000000007 72.500000000000014 -2.7467060089111324 -1.4720461368560789 0.55516955256462108 0.48201768100261694 2.5145349502563481 0.52589619159698497 0.17043536901474002 0.173385925590992 1.7224588394165041 1.5886486768722536 0.37441484630107885 1.5311149358749392 5.1762948036193857 0.74827921390533458 -0.47687688469886774 0.074606895446777358 2.5396703481674199 1.5370450615882876 -1.7189007997512815 0.61145889759063732 2.1384149789810185 -1.9065072536468504
decision_type=2 2 2 2 2 2 2 2 2 2 2 2 2 2 2 2 2 2 2 2 2 2 2 2 2 2 2 2 2 2
left_child=1 9 -2 5 18 11 8 -6 -5 -1 14 27 13 15 -9 28 17 -8 -3 25 21 29 23 -23 -7 -15 -27 -4 -10 -21
right_child=2 4 3 6 7 24 16 10 12 -11 -12 -13 -14 19 -16 -17 -18 -19 -20 20 -22 22 -24 -25 -26 26 -28 -29 -30 -31
leaf_value=0.011508856009999482 0.0017793698746305536 0.004125677891087109 -0.0028207200417585858 0.21171317622626226 0.009397327780307909 -0.0082839515518504103 -0.00023733781521281458 0.0020003035395634809 0.012901025233467261 0.0073625666826833717 0.0048773241844853356 0.00099185222871677522 -0.15690381220293451 0.013367897936349843 -0.0010387082933625692 -0.00091926026027861797 0.0042396396960075224 -0.0062184187188874841 0.0063054859821094645 0.10427144068177714 0.12405548891833343 0.15758226828418392 0.026180338048772452 0.04637256766280512 -0.018302830982709579 -0.19470662701276573 -0.0089587651645825182 -0.0065586974623388292 -0.042983268400453412 -0.0014793643686043618
leaf_weight=119806.34643614292 618121.79447793961 418159.21159178019 214755.71570962667 47.130003035068512 34168.832340717316 83094.233558416367 160764.94845336676 249138.87537497282 9985.1485804319382 392407.15688621998 95953.195421040058 73498.120047986507 39.89604663848877 9567.637381374836 181122.14626193047 14697.287569701672 34598.546157062054 29237.365434348583 312187.72938221693 69.40761399269104 138.18632888793945 149.7959451675415 1459.1942567825317 155.40999817848206 8705.9274899959564 47.646445393562317 392.33590310811996 71911.396327674389 239.13349652290344 1072.858686208725
leaf_count=62618 306665 200274 104479 24 16672 43676 78897 119387 4952 196792 47723 35990 41 5429 90277 6710 17049 14914 159028 18 32 44 397 45 5093 40 274 37392 115 321
internal_value=0.00272699 0.00502565 -0.000382634 -0.00225267 0.0037134 -0.00409811 0.000922788 0.00196171 0.00829356 0.00833238 0.00147889 -0.00278903 0.00804136 0.00821465 0.000721005 0.00421439 -0.00032627 -0.0011577 0.00505744 0.0158525 0.0301515 0.0256872 0.0391148 0.100955 -0.0092341 0.011502 -0.0290737 -0.0037584 0.011594 0.00494638
internal_weight=0 1.80294e+06 1.33275e+06 714627 1.29073e+06 451965 262662 560383 38061.1 512214 526214 360165 38013.9 37974 430261 24921.6 224601 190002 730347 13052.5 3044.85 2906.67 1764.4 305.206 91800.2 10007.6 439.982 286667 10224.3 1142.27
internal_count=1555368 892771 662597 355932 633361 226630 129302 274059 18442 259410 257387 177861 18418 18377 209664 11777 110860 93811 359302 6600 857 825 486 89 48769 5743 314 141871 5067 339
is_linear=0
shrinkage=1


Tree=1
num_leaves=31
num_cat=0
split_feature=8 9 8 61 8 9 71 61 62 8 0 62 8 9 39 8 8 61 30 61 39 64 32 71 70 9 32 13 0 24
split_gain=8109.48 2909.17 1913.74 1733.75 1771.37 853.9 592.994 568.892 565.309 527.929 521.597 447.208 431.88 398.394 378.94 371.264 370.399 356.054 340.111 332.753 323.059 437.389 318.33 310.596 299.509 275.505 327.414 255.027 254.653 250.869
threshold=-0.075825743377208696 0.11484838649630548 -0.7221357226371764 0.54226404428482067 0.94609105587005626 -0.17142754048109052 0.66721907258033764 -0.75146463513374318 3.4572746753692631 -2.1725847721099849 72.500000000000014 0.48201768100261694 1.3408381342887881 0.51415807008743297 1.1052201390266421 2.5396703481674199 0.46641527116298681 0.54226404428482067 -0.6442628502845763 0.63354709744453441 -2.7467060089111324 1.4159367084503176 0.063424758613109603 2.3999392986297612 0.18871162831783297 -0.48359608650207514 0.041419385001063354 69.000000000000014 56.500000000000007 1.5311149358749392
decision_type=2 2 2 2 2 2 2 2 2 2 2 2 2 2 2 2 2 2 2 2 2 2 2 2 2 2 2 2 2 2
left_child=2 16 7 4 6 22 11 18 12 -9 -7 13 -5 -3 17 24 23 -12 29 -18 21 -10 -4 -2 -6 26 -11 -8 -15 -1
right_child=1 3 5 8 15 10 27 9 20 25 14 -13 -14 28 -16 -17 19 -19 -20 -21 -22 -23 -24 -25 -26 -27 -28 -29 -30 -31
leaf_value=0.0068246165465065877 0.0001250800899336129 -0.0043497550485578134 0.0021280713408094029 0.0014511847648190227 -0.010951964496514442 0.0062867021806723615 0.0073188252375357647 0.014251406572886066 0.023873482311249795 0.0055080728226353914 -0.0010122042788068863 -0.0017959857277626721 -0.0039568840586669185 0.0014958995516439169 0.0049934435724955954 -0.019219281012870591 -0.0034783195433569433 0.0055935345487174706 0.0017668010292391303 0.0026618840562094561 0.012233038966952629 0.15913831855153449 0.0047119035148233965 0.006870023321643587 -0.0032877815341280092 0.0046636988644826512 0.010374870117294712 -0.0010994234230176532 -0.0081607244665199471 0.024606980909556972
leaf_weight=8065.3198278546333 734915.19026637077 322181.57390165329 278332.29497814178 114456.93131148815 92903.862751543522 33055.664060294628 13340.524695932865 23949.448998451233 183.9892715215683 67934.940190136433 375747.4283657074 114525.88009887934 54491.788574159145 7227.7976858019829 32108.663913071156 11865.658165514469 127019.69675517082 21570.207293212414 90061.596651852131 26703.281017124653 6458.2102236747742 88.515513181686401 208498.62439894676 17473.687018334866 14774.503820061684 113997.61038780212 70339.764443397522 27630.111843943596 123159.64811623096 2630.1950674057007
leaf_count=4592 357908 155523 121827 54724 49073 16147 7123 13921 99 30595 181902 54598 25666 3612 17051 6994 65355 11483 42199 12818 3481 53 119626 10575 8056 58500 41408 16662 63015 782
internal_value=0 -0.00217697 0.00296994 -0.00418497 -0.00526134 0.00177307 -0.00416747 0.0059839 0.000273012 0.007157 0.000234527 -0.00458716 -0.000293104 -0.00529349 -0.000231347 -0.0108253 -0.000175217 -0.000653581 0.00276789 -0.0024117 0.0144832 0.0678105 0.00323467 0.000281727 -0.00990037 0.0064835 0.00798379 0.00164166 -0.00762543 0.0111976
internal_weight=0 1.8094e+06 1.32629e+06 903289 727610 949313 608066 376979 175679 276222 462482 567095 168949 452569 429426 119544 906112 397318 100757 153723 6730.72 272.505 486831 752389 107678 252272 138275 40970.6 130387 10695.5
internal_count=1555368 895335 660033 448679 364656 468036 300533 191997 84023 144424 226583 276748 80390 222150 210436 64123 446656 193385 47573 78173 3633 152 241453 368483 57129 130503 72003 23785 66627 5374
is_linear=0
shrinkage=0.05


Tree=2
num_leaves=31
num_cat=0
split_feature=8 8 9 61 8 9 0 32 70 62 61 9 62 9 0 31 8 8 0 32 39 37 70 9 61 8 8 39 30 67
split_gain=7379.86 2557.95 1767.57 1711.27 1165.56 1004.94 675.419 577.56 508.522 484.033 436.411 428.613 427.756 419.62 388.645 372.742 349.691 345.595 321.481 310.699 290.62 430.468 279.931 276.588 268.256 285.607 261.992 232.232 228.594 327.972
threshold=0.048614356666803367 -0.54689016938209523 0.21982105076313022 0.54226404428482067 1.1290594935417178 -0.096618562936782823 76.500000000000014 0.066854622215032591 -0.12877336889505384 3.4572746753692631 0.51580554246902477 -0.48359608650207514 0.51044723391532909 0.17043536901474002 48.500000000000007 -0.075525123625993715 0.46641527116298681 1.3408381342887881 72.500000000000014 0.03342042118310929 -2.7467060089111324 1.3780431151390078 0.15795407444238665 -0.068220395594835267 -1.192760109901428 -1.8528658747673032 2.5396703481674199 0.47139808535575872 -2.0175012350082393 -0.68227729201316822
decision_type=2 2 2 2 2 2 2 2 2 2 2 2 2 2 2 2 2 2 2 2 2 2 2 2 2 2 2 2 2 2
left_child=1 7 10 4 8 19 -7 -1 15 17 16 24 13 27 28 -4 23 -5 -13 -3 21 -11 26 -2 -9 -26 -6 -8 29 -10
right_child=2 5 3 9 22 6 12 11 14 20 -12 18 -14 -15 -16 -17 -18 -19 -20 -21 -22 -23 -24 -25 25 -27 -28 -29 -30 -31
leaf_value=0.0035831524267138596 0.00036662437721974998 0.0012644718050272912 -0.0046286192353645955 0.0011757994711850206 -0.011533691317773459 0.0058074201827955294 -0.0011905805241199802 0.0038009268086766075 0.18523476222971247 0.037497527681132417 0.0025294747507166654 0.011950090643664832 0.0018848267535319816 -0.0035469815372930341 -0.0028956741239776042 -0.0081445862701194274 -0.0035928237482229148 -0.0038734839920552457 0.003374486699738419 0.0034439837294362851 0.011338521846471239 0.21569166601094084 -0.0047819970202425842 -0.0020858980118564764 0.015341223071901628 0.0086674312159190931 -0.020473300815874926 0.0021555025537193235 0.0064004366819996302 0.020202381294446584
leaf_weight=286208.2516925931 238753.7069362402 355667.62349355221 201275.41506302357 93389.705924987793 61698.335967540741 39487.36968255043 243989.72741371393 21702.165367007256 43.153339624404907 208.47362816333771 75606.876954674721 12534.001317739487 108925.73742115498 174144.94649577141 76783.430979251862 120514.78891545534 150163.88147294521 53188.53975892067 85326.195312082767 302665.07097196579 6024.5030146241188 40.471143484115601 13155.893060147762 221717.37755572796 19663.657334089279 86779.232298851013 9451.2679518461227 65849.514893949032 10633.731601297855 99.562643885612488
leaf_count=126449 118095 154063 89801 44195 32905 19225 115842 12110 21 116 37071 7319 54113 87060 39205 70040 77277 25075 50301 170324 3224 21 7306 107539 12177 51054 5565 32734 5067 74
internal_value=0 0.0020855 -0.00282127 -0.00469728 -0.00612869 0.000899097 -0.000524375 0.00507513 -0.00502613 -7.43328e-05 -0.00105388 0.00696453 -0.000946068 -0.00158319 -0.00164772 -0.0059454 -0.00149755 -0.000656423 0.00447286 0.00226649 0.0135261 0.0664667 -0.0114823 -0.000814268 0.00886734 0.00990031 -0.0127212 -0.000479444 0.00724408 0.0701036
internal_weight=0 1.80294e+06 1.33275e+06 646507 493656 1.29073e+06 632397 512214 409350 152852 686242 226005 592910 483984 87559.9 321790 610635 146578 97860.2 658333 6273.45 248.945 84305.5 460471 128145 106443 71149.6 309839 10776.4 142.716
internal_count=1555368 892771 662597 322615 249984 633361 308974 259410 204208 72631 339982 132961 289749 235636 44367 159841 302911 69270 57620 324387 3361 137 45776 225634 75341 63231 38470 148576 5162 95
is_linear=0
shrinkage=0.05


Tree=3
num_leaves=31
num_cat=0
split_feature=8 8 9 15 8 9 0 58 0 8 62 62 32 30 9 39 25 25 65 60 8 31 53 9 22 9 70 62 7 63
split_gain=6660.32 2308.55 1602.1 1234.69 1013.12 913.402 814.219 640.112 618.114 525.939 429.258 406.182 394.742 376.081 334.2 333.406 327.67 312.018 436.86 296.04 329.198 292.333 287.043 263.935 259.863 256.556 249.506 302.652 241.92 408.303
threshold=0.048614356666803367 -0.54689016938209523 0.10939534753561021 -0.10569281503558157 0.75915369391441356 -0.050054965540766709 56.500000000000007 2.4157969951629643 72.500000000000014 -2.1725847721099849 0.57049003243446361 0.28968729078769689 0.066854622215032591 0.56319960951805126 0.86503130197525036 0.47139808535575872 2.0062348842620854 1.9820520877838137 -1.0000000180025095e-35 3.1357452869415288 1.1733605265617373 -0.029561518691480156 0.37441484630107885 0.34595753252506262 0.92363569140434276 -0.48359608650207514 2.6602095365524296 -0.18103162944316861 1.2222010493278506 0.52516350150108349
decision_type=2 2 2 2 2 2 2 2 2 2 2 2 2 2 2 2 2 2 2 2 2 2 2 2 2 2 2 2 2 2
left_child=1 9 26 4 11 22 7 13 -7 -1 15 -4 -11 16 -6 23 17 28 -19 20 -8 -16 -3 -10 -18 -14 27 -2 -5 -30
right_child=2 5 3 6 14 8 19 -9 10 12 -12 -13 25 -15 21 -17 24 18 -20 -21 -22 -23 -24 -25 -26 -27 -28 -29 29 -31
leaf_value=0.0098906965566246847 -0.0021021576277184973 0.0011627592652957361 -0.0053988871246210234 0.0074973631924521644 -0.0071545845347850663 0.0058523803095030802 -0.0016246080078682976 0.20388557810853039 -0.0017399986312442981 0.00303704709153149 0.00199492020394211 -0.0017867029651996052 0.0076311882453557016 -0.0013267415516264544 -0.0095873133321457138 0.0009172182971146864 -0.022252136849317112 0.20624472593781254 0.012592218646100953 0.0097921127159692964 -0.0057709872810062825 -0.016967424217591225 0.0031664437044744693 -0.0051192662091955974 0.066874917562160255 0.0040646453437224927 0.0071132850867782612 0.00026043397902726433 0.0068278514788150287 0.041040917734285427
leaf_weight=46518.471266806126 243341.48501586914 418159.21159178019 255027.05246633291 19810.698549211025 72291.900383770466 34168.832340717316 163564.13767880201 40.479297637939453 267230.07450520992 263003.61876732111 92989.161995947361 112005.57534360886 108465.72742897272 14882.274087131023 37272.783216953278 92272.462908089161 1176.9299589395523 48.529633522033691 72.82724267244339 4734.4575238823891 67675.972368240356 20965.717100679874 312187.72938221693 73722.517648696899 87.890956878662109 94225.685859262943 10181.478425323963 306018.5717420578 2010.1044840216637 1540.2504363059998
leaf_count=25055 118196 200274 126610 10371 37016 16672 80944 20 127377 115557 46317 53770 63411 6251 18264 46944 528 22 49 2419 33274 13146 159028 36749 26 55387 6039 153695 1177 780
internal_value=0 0.00198123 -0.0026802 -0.00415492 -0.00564206 0.000854142 -0.0014705 0.00515727 -0.000664325 0.00482137 -0.00108748 -0.00429657 0.00431499 0.00495428 -0.00942538 -0.00174909 0.0087315 0.0100668 0.0900323 -0.0025847 -0.00283811 -0.0122441 0.00201924 -0.00247068 -0.0160588 0.0059732 -0.000642349 -0.000786087 0.00965136 0.0216705
internal_weight=0 1.80294e+06 1.33275e+06 773208 497563 1.29073e+06 275645 39670 560383 512214 526214 367033 465695 39629.5 130530 433225 24747.2 23482.4 121.357 235975 231240 58238.5 730347 340953 1264.82 202691 559542 549360 23361.1 3550.35
internal_count=1555368 892771 662597 384667 248806 633361 135861 19224 274059 259410 257387 180380 234355 19204 68426 211070 12953 12399 71 116637 114218 31410 359302 164126 554 118798 277930 271891 12328 1957
is_linear=0
shrinkage=0.05


Tree=4
num_leaves=31
num_cat=0
split_feature=9 0 9 62 71 62 32 58 25 39 32 24 64 9 22 30 0 40 70 26 74 62 9 22 30 14 72 20 9 30
split_gain=5964.41 1775.3 1179.59 1802.09 839.057 834.651 795.228 777.385 655.165 580.425 564.867 536.298 1207.71 503.836 480.59 460.34 437.321 418.434 409.864 408.856 404.323 389.68 401.523 349.83 797.508 694.395 508.086 354.503 339.266 337.062
threshold=-0.050054965540766709 56.500000000000007 0.45517463982105261 0.69832959771156322 0.48625724017620092 0.40817815065383917 0.37019978463649755 2.4157969951629643 2.1384149789810185 1.1052201390266421 -0.014907650183886288 1.5311149358749392 5.7025718688964853 -0.69422540068626393 0.90189418196678173 0.173385925590992 790.50000000000011 2.5145349502563481 -0.12362265586853026 0.030883894301950935 -0.09464246034622191 2.3867489099502568 1.5886486768722536 0.74827921390533458 -0.47687688469886774 0.074606895446777358 -0.41999167203903193 -2.5148445367813106 0.18836578726768496 -2.0175012350082393
decision_type=2 2 2 2 2 2 2 2 2 2 2 2 2 2 2 2 2 2 2 2 2 2 2 2 2 2 2 2 2 2
left_child=6 4 5 10 8 9 16 11 15 28 -4 17 23 -8 -10 18 -1 -6 -2 -17 -12 22 -5 27 25 26 -25 -13 -3 -20
right_child=1 2 3 21 7 -7 13 -9 14 -11 20 12 -14 -15 -16 19 -18 -19 29 -21 -22 -23 -24 24 -26 -27 -28 -29 -30 -31
leaf_value=0.0019124637749470216 0.001610916560882797 -0.0017408450868513156 -0.0044002482127791821 0.00011689709669885631 0.0074870056889582287 0.0017046378895783491 0.0071110676067214322 0.19821210727085239 -0.046063139576292884 0.0024332649434209036 -0.010340511383650997 0.093242718249900103 0.11695125248058968 0.0030166200114386996 0.037741823912292985 -0.0012365583549588431 -0.0018347125557711332 -0.11984192762366229 0.080211991466258806 -0.09602757238708437 -0.0056125198389783736 0.0055849737083711291 -0.0052573797908122234 0.074987115937950988 0.018064145504810666 0.027209131639866879 0.20330337570543777 0.00039533074139328048 -0.0039635439306460836 0.012082661047342368
leaf_weight=1094981.812748313 18692.947690427303 463228.21150916815 163878.81784361601 125547.38017249107 23393.451059043407 168241.63201057911 113736.52206015587 55.419941663742065 1133.0397439599037 63069.834584951401 111267.01830625534 107.13384175300598 325.17921876907349 221374.19704824686 201.4928674697876 42325.98346477747 83823.881482362747 64.701159298419952 184.01811349391937 114.06290072202682 76176.023448824883 22776.76676684618 48058.081581711769 173.19740724563599 3481.8963956832886 318.39487838745117 139.10801529884338 2545.1843309402466 272774.5530127883 13502.666001617908
leaf_count=495864 10193 222061 72840 59824 13365 83686 74642 28 534 33207 63339 27 76 145416 40 19896 38017 61 117 82 44677 11734 23610 47 948 92 42 761 133602 6540
internal_value=0 -0.00210689 -0.00254603 -0.00440015 0.004125 -0.00149621 0.002257 0.0111174 0.001315 -0.00217014 -0.00654444 0.010778 0.0228284 0.00440627 -0.0334099 0.00193438 0.00164601 0.00713581 0.00642445 -0.00149132 -0.00841908 -0.000564083 -0.00137083 0.018304 0.0274351 0.0791691 0.132142 0.00414567 -0.00256461 0.0129987
internal_weight=0 1.62178e+06 1.51502e+06 547704 106758 967314 1.51392e+06 30603.7 76154.2 799073 351322 30548.2 7090.09 335111 1334.53 74819.7 1.17881e+06 23458.2 32379.6 42440 187443 196382 173605 6764.91 4112.6 630.7 312.305 2652.32 736003 13686.7
internal_count=1555368 801429 748580 276024 52849 472556 753939 15447 37402 388870 180856 15419 1993 220058 574 36828 533881 13426 16850 19978 108016 95168 83434 1917 1129 181 89 788 355663 6657
is_linear=0
shrinkage=0.05


Tree=5
num_leaves=31
num_cat=0
split_feature=8 9 8 61 8 9 61 61 0 62 8 0 32 39 8 61 8 40 62 70 70 58 37 12 71 8 25 22 30 62
split_gain=5796.6 2065.9 1273.51 1273.19 1426.04 659.801 467.16 453.077 439.005 425.998 398.067 354.115 335.602 329.92 325.167 319.068 453.043 308.203 344.302 288.116 278.118 257.855 395.381 240.412 238.532 235.189 235.094 235.925 217.964 242.242
threshold=-0.10991450771689414 0.10939534753561021 -1.0675348639488218 0.54226404428482067 0.69764238595962536 -0.22905258834362027 -0.67725679278373707 0.70478510856628429 60.500000000000007 3.4572746753692631 1.7731520533561709 84.500000000000014 0.02601976785808802 1.1052201390266421 1.3408381342887881 0.57112723588943493 0.46641527116298681 0.0072315065190196046 0.18481764942407611 2.1102851629257207 0.20536851137876513 2.1625268459320073 1.6671239733695986 6.5000000000000009 2.6114041805267338 -2.4191511869430538 2.1384149789810185 0.90189418196678173 0.47652268409729009 -0.94402629137039173
decision_type=2 2 2 2 2 2 2 2 2 2 2 2 2 2 2 2 2 2 2 2 2 2 2 2 2 2 2 2 2 2
left_child=2 15 6 4 8 12 -1 11 26 14 20 28 -4 -13 -5 16 19 18 -10 -2 -6 -11 23 -23 -19 -8 -3 -28 29 -7
right_child=1 3 5 9 10 7 25 -9 17 21 -12 13 -14 -15 -16 -17 -18 24 -20 -21 -22 22 -24 -25 -26 -27 27 -29 -30 -31
leaf_value=0.0029920468150675759 -4.6834908756250168e-05 0.0036067535889358765 0.0019880130457072391 0.0014063761184343641 -0.0078320838643974912 0.021375221790454743 0.013561650096344295 0.0076039181805975702 -0.006260852051000668 0.0098751989642926561 -0.013087138547508785 -0.00048484670311773486 0.00456772576200851 0.0046959593100721446 -0.0032674031498710031 0.0030778221997280787 -0.0031731354964480776 -0.0023891398202105086 -0.0026556040318244274 0.0071258634818954537 -0.0012466750882650119 0.074916240639079215 0.20276202798082249 0.0038088362233591275 0.010882477057298924 0.0071329027443349669 -0.043588317492685047 0.040248738124810647 0.0001737821004078373 0.0058496125621105826
leaf_weight=75535.016690909863 761091.83965426683 28148.770849347115 265359.41878128052 117094.34018838406 132057.52510762215 2815.7757390737534 16056.067587018013 22417.110547304153 143716.28705090284 6269.3717695474625 33131.67014592886 404715.75263863802 240185.38733565807 33254.329595208168 54551.673368513584 72823.084370732307 123709.45469343662 278285.08569598198 122815.22048920393 14262.843530297279 18247.994048893452 208.26617586612701 37.538711309432983 276.9219731092453 3427.3292502760887 124866.06761723757 472.55188512802124 102.03470325469971 16437.162792980671 23320.716619551182
leaf_count=35757 370361 13724 115715 56067 68048 1506 9484 12356 73635 3366 18769 196517 136039 17630 25694 36767 63746 135271 58815 8089 9826 137 20 150 2284 66263 260 27 6925 12120
internal_value=0 -0.00172128 0.0026849 -0.00339405 -0.00428601 0.00193801 0.00616477 0.000655827 -0.0030651 0.000406955 -0.00812613 0.000331702 0.00321364 -9.14768e-05 -7.90209e-05 -0.000105384 -0.000363219 -0.00338079 -0.00459959 8.51087e-05 -0.00703258 0.0126883 0.0464271 0.0343316 -0.00222768 0.00786537 0.00296047 -0.0287006 0.00468509 0.00752224
internal_weight=0 1.91073e+06 1.22496e+06 938843 760404 1.00851e+06 216457 502961 576967 178438 183437 480544 505545 437970 171646 971887 899064 548244 266532 775355 150306 6792.1 522.727 485.188 281712 140922 28723.4 574.587 42573.7 26136.5
internal_count=1555368 945056 610312 466093 380659 498808 111504 247054 284016 85434 96643 234698 251754 214147 81761 478963 442196 270005 132450 378450 77874 3673 307 287 137555 75747 14011 287 20551 13626
is_linear=0
shrinkage=0.05


Tree=6
num_leaves=31
num_cat=0
split_feature=9 0 9 62 62 71 32 32 22 0 58 9 62 25 71 30 0 31 22 30 40 25 25 65 27 32 62 10 26 30
split_gain=4937.53 1533.12 1019.85 1538.23 773.827 747.577 709.836 1809.51 4284.16 1170.21 668.213 579.304 617.176 575.959 513.031 505.249 497.664 493.135 422.759 409.954 400.54 389.968 752.52 652.214 371.611 484.355 479.829 403.616 369.707 368.613
threshold=-0.050054965540766709 56.500000000000007 0.47792649269104009 0.69832959771156322 0.33408120274543768 0.48625724017620092 1.0000000180025095e-35 -0.0022366541670635338 0.22744568437337878 479.50000000000006 2.4157969951629643 -0.49319079518318171 -0.5786023437976836 2.1384149789810185 1.2966461777687075 -1.0315506458282468 790.50000000000011 -0.23753476142883298 0.90189418196678173 0.173385925590992 2.5145349502563481 2.0062348842620854 1.9820520877838137 0.011903265956789257 0.74835464358329784 -0.69034796953201283 0.71951040625572216 0.063446916639804854 0.030883894301950935 -0.61774665117263783
decision_type=2 2 2 2 2 2 2 2 2 2 2 2 2 2 2 2 2 2 2 2 2 2 2 2 2 2 2 2 2 2
left_child=6 5 4 17 14 13 7 16 9 -9 20 12 -8 19 -3 -16 -1 -4 -15 24 21 22 -7 -24 26 -26 -2 29 -21 -27
right_child=1 2 3 -5 -6 10 11 8 -10 -11 -12 -13 -14 18 15 -17 -18 -19 -20 28 -22 -23 23 -25 25 27 -28 -29 -30 -31
leaf_value=0.0015359219785943561 -0.0056875512453455372 -0.0023409525873459461 -0.004263992849646423 -0.00055047322284018738 0.0012892698104993196 0.011109831795464563 0.0020076680674082277 -0.13991774441050492 -0.0014229573427877152 -0.0484767011830749 0.18393515432325591 0.0018887930392669648 0.0063807139345310728 -0.043203942236461068 0.018331273023369059 0.0011027560195639725 -0.0034934958253442479 -0.0081173394902778438 0.035397182038830619 -0.0011879147221228923 -0.11411312713246019 -0.012360927161710646 0.17906390652100518 0.0071823055513079524 -0.017762569579523012 0.032336182236741937 0.012669887440242326 0.0023046721424288519 -0.09132659778466061 0.012446694356952616
leaf_weight=700427.80988764763 10445.679172754288 753578.5674700141 168003.40933209658 192441.10762643814 212983.97773039341 28490.736942648888 132366.36450433731 837.9889669418335 4090.1021414399147 600.68235683441162 55.419941663742065 416056.45996314287 206636.27573102713 1133.0397439599037 5543.9426903128624 18310.468559861183 52900.729787707329 164156.84582811594 201.4928674697876 42325.98346477747 64.701159298419952 1768.9949694275856 124.9651620388031 98.84807300567627 1320.6171237230301 3629.9245859980583 5399.6682232618332 5081.3016298413277 114.06290072202682 6502.4410699605942
leaf_count=302431 6172 364736 79184 93231 104597 14484 73663 226 1752 162 28 232371 120462 534 3886 10796 22872 92150 40 19896 61 777 65 32 487 1716 3202 2443 82 2830
internal_value=0 -0.00191696 -0.00232505 -0.00410753 -0.00138091 0.00387428 0.00205354 0.000973576 -0.0275267 -0.101739 0.0104745 0.00313893 0.00467322 0.00122189 -0.00211243 0.00510679 0.00118274 -0.00616835 -0.0313364 0.00180262 0.0101598 0.0104236 0.0118272 0.103152 0.00603984 0.0112835 0.00056817 0.0138049 -0.00143017 0.0195721
internal_weight=0 1.62178e+06 1.51502e+06 524601 990417 106758 1.51392e+06 758857 5528.77 1438.67 30603.7 755059 339003 76154.2 777433 23854.4 753329 332160 1334.53 74819.7 30548.2 30483.5 28714.6 223.813 32379.6 16534.3 15845.3 15213.7 42440 10132.4
internal_count=1555368 801429 748580 264565 484015 52849 753939 327443 2140 388 15447 426496 194125 37402 379418 14682 325303 171334 574 36828 15419 15358 14581 97 16850 7476 9374 6989 19978 4546
is_linear=0
shrinkage=0.05


Tree=7
num_leaves=31
num_cat=0
split_feature=8 8 61 8 9 9 8 8 61 71 62 39 30 61 8 9 61 32 70 53 9 0 9 62 79 60 15 62 49 62
split_gain=5065.94 1919.61 1127.33 1610.62 570.427 564.206 483.342 455.455 414.111 413.877 401.894 350.363 340.588 299.156 325.504 279.788 277.79 270.985 239.689 238.703 234.789 323.749 229.214 236.488 223.327 262.527 215.078 210.192 197.695 197.215
threshold=0.084484282881021514 -0.4731194525957107 0.7863355576992036 0.78276991844177257 -0.096618562936782823 0.027754941023886207 -1.4720461368560789 2.2582098245620732 -0.67725679278373707 0.37911102175712591 0.39698971807956701 -0.079534363001584993 -0.50973039865493763 2.6460717916488652 2.2582098245620732 0.21352922916412356 -0.57836449146270741 5.1875700950622567 -0.13387685269117353 0.60001680254936229 0.62682679295539867 32.500000000000007 -0.34382715821266169 1.3861175775527956 -0.16922674328088758 3.1357452869415288 2.8551315069198613 0.48201768100261694 -2.3966367244720455 -0.4339118599891662
decision_type=2 2 2 2 2 2 2 2 2 2 2 2 2 2 2 2 2 2 2 2 2 2 2 2 2 2 2 2 2 2
left_child=1 6 3 5 19 26 16 20 12 10 15 27 -8 14 -4 -6 -1 28 -13 29 -5 -22 -10 -24 -15 -26 -2 -7 -11 -3
right_child=2 4 13 7 9 11 8 -9 22 17 -12 18 -14 24 -16 -17 -18 -19 -20 -21 21 -23 23 -25 25 -27 -28 -29 -30 -31
leaf_value=0.0041136310983254454 -0.0006176779613316038 -0.0008261163045616926 0.0012876810089451373 -0.0045575300158317263 -0.00078017716600072571 -0.0055112243000630008 0.0075297440575013202 -0.013638900787738498 0.0051093955633128053 0.01229108197508566 0.0015096470454044558 -0.0026992446331216692 -0.0011564972341520758 0.003215058721639753 -0.0061731111528547464 -0.0034496097273384583 0.0089617616324966041 0.034336869253312273 0.00095504275200130522 0.0029735005030566771 0.00343412379728298 -0.0086791582381646505 0.0021333056561397691 0.0093570158655892112 0.010441826081566628 0.042825458377161396 0.010526592595453445 -0.002020710896114314 0.0021369201732722538 0.0015821120953624522
leaf_weight=52937.952630460262 320438.77801626921 116080.03430181742 121809.23949176073 113366.84107559919 337647.83825951815 166617.39896047115 13304.671389639378 22124.111744701862 204766.07669186592 5192.5574032664299 137843.56910860538 216930.68186074495 74344.276061832905 18623.990411937237 16613.181427896023 138391.99915015697 66868.393805682659 693.29980093240738 56575.517822265625 215509.98921871185 5880.4127016663551 89010.277339994907 161507.19507944584 12184.747507631779 7150.1499379873276 685.87250518798828 4388.7407193779945 58193.599643528461 62364.615685224533 317646.59985268116
leaf_count=25438 158398 55121 57476 58682 159465 83848 6658 12735 104692 2897 67059 104849 34522 8974 7946 68645 37180 656 28557 114176 3013 46510 80759 6631 4499 411 2665 28109 34264 150533
internal_value=0 0.00160209 -0.00252104 -0.00312272 0.000552546 -0.00208846 0.00398696 -0.00681808 0.00325889 -0.000457142 -0.000867801 -0.00314534 0.000162031 0.00132341 0.000392252 -0.00155622 0.00681955 0.00323655 -0.00194335 0.0016134 -0.00609348 -0.00792849 0.0039761 0.00264006 0.00619465 0.0132763 -0.000467108 -0.00460769 0.00291739 0.000937588
internal_weight=0 1.91728e+06 1.21841e+06 1.05353e+06 1.33137e+06 823145 585913 230382 466107 682134 613883 498317 87648.9 164882 138422 476040 119806 68250.5 273506 649237 208258 94890.7 378458 173692 26460 7836.02 324828 224811 67557.2 433727
internal_count=1555368 948696 606672 527366 652816 406426 295880 120940 233262 332986 295169 245363 41180 79306 65422 228110 62618 37817 133406 319830 108205 49523 192082 87390 13884 4910 161063 111957 37161 205654
is_linear=0
shrinkage=0.05


Tree=8
num_leaves=31
num_cat=0
split_feature=40 71 0 60 11 7 30 40 78 37 48 62 13 51 0 22 30 0 11 39 20 24 22 66 74 25 63 7 64 66
split_gain=1247.71 1241.65 887.445 982.196 623.433 531.939 526.667 482.148 448.285 739.243 437.121 419.515 408.973 399.556 398.991 603.321 994.689 880.225 613.652 1001.15 498.061 485.971 1076.63 911.912 483.488 485.526 563.933 480.618 455.495 412.42
threshold=0.0072315065190196046 1.2337485551834109 727.50000000000011 2.5811884403228764 10.000000000000002 0.043750859797000892 0.1135145239531994 -3.3928374052047725 2.2507845163345341 1.9409465193748476 -0.27794127166271204 1.209050238132477 466.00000000000006 3.9425449371337895 48.500000000000007 -0.27318775653839106 -2.0175012350082393 24.500000000000004 10.000000000000002 -0.10413864254951476 0.46212367713451391 1.9322060942649844 0.18686728924512866 -0.2438784912228584 -0.17515348643064496 1.1338210105895998 0.9284789264202119 -3.420512199401855 1.1376466751098635 -0.03895310312509536
decision_type=2 2 2 2 2 2 2 2 2 2 2 2 2 2 2 2 2 2 2 2 2 2 2 2 2 2 2 2 2 2
left_child=2 14 3 5 6 -1 -4 8 9 -7 -8 -9 -6 -5 15 27 17 -17 19 29 -16 -21 -23 -24 25 -25 -27 -2 -26 -18
right_child=1 -3 4 13 12 7 10 11 -10 -11 -12 -13 -14 -15 20 16 18 -19 -20 21 -22 22 23 24 28 26 -28 -29 -30 -31
leaf_value=0.0004174811603444887 0.073631941054968189 0.0052536593629257319 -0.0085884591801176323 0.0086386821549762644 -0.0038313296211823738 -0.019268098723645641 -0.054489494036868084 -0.0020199510287932649 0.13905274265311521 -0.22248814605360995 -0.015115306715680378 0.0020889321048748683 0.0033439455584123551 0.032467360487791842 -0.00070341710111053283 0.20554970246721102 -0.061357777742486734 -0.0069300653846648859 0.0036532591670815576 0.013865466538788519 0.001154723282435374 -0.022921368162190731 0.16367960739433049 0.17159679291282645 0.012165047757422059 0.043876619987997467 0.16602830073949493 -0.005133785163338297 0.07089215432234186 -0.003500970680854123
leaf_weight=555122.74106872082 195.79564362764359 150760.16545426846 26035.382003188133 14680.09759759903 165882.87979388237 3524.6340352296829 1178.5324461460114 584866.65650683641 43.820237994194031 45.32558012008667 1753.9049500226974 69503.544532895088 22559.767710983753 1998.728608250618 665016.03014415503 117.20151990652084 452.51251715421677 83.443850874900818 56409.855352520943 5312.4193201065063 787912.63296335936 597.99287343025208 168.62749147415161 108.77794718742371 1246.5920639038086 742.81116986274719 108.25664520263672 17849.762680113316 449.13601446151733 964.58088338375092
leaf_count=285741 158 83595 9616 7738 83711 2240 355 286242 25 39 492 35130 14645 1205 319501 63 128 53 24875 2068 384447 158 38 24 321 184 29 12132 106 309
internal_value=0 0.000923366 -0.00107732 -0.000556727 -0.0040221 -0.000722413 -0.0108511 -0.00168411 -0.0198972 -0.0218483 -0.0309396 -0.00158353 -0.00297233 0.0114942 0.000498822 0.00383243 0.00602497 0.117184 0.00568989 0.0170068 0.000304239 0.0233313 0.0380255 0.0509304 0.0437709 0.0721279 0.0594144 -0.00427917 0.0277197 -0.0219761
internal_weight=0 1.6885e+06 1.4472e+06 1.22979e+06 217410 1.21311e+06 28967.8 657984 3613.78 3569.96 2932.44 654370 188443 16678.8 1.53774e+06 84807.8 66762.2 200.645 66561.6 10151.7 1.45293e+06 8734.61 3422.19 2824.2 2655.57 959.846 851.068 18045.6 1695.73 1417.09
internal_count=1555368 828189 727179 618360 108819 609417 10463 323676 2304 2279 847 321372 98356 8943 744594 40646 28356 116 28240 3365 703948 2928 860 702 664 237 213 12290 427 437
is_linear=0
shrinkage=0.05


Tree=9
num_leaves=31
num_cat=0
split_feature=8 8 61 8 61 61 8 8 40 71 71 61 8 30 39 70 30 79 58 8 7 24 51 31 37 24 64 27 27 68
split_gain=4566.8 1717.44 1024.26 1413.99 448.408 411.658 458.718 409.332 393.727 381.402 363.714 316.062 359.12 314.582 272.142 235.31 205.55 200.744 234.127 199.838 194.545 192.989 357.54 399.13 246.748 204.566 280.589 271.993 189.868 185.618
threshold=0.084484282881021514 -0.54689016938209523 0.51580554246902477 0.75915369391441356 0.54226404428482067 -0.67725679278373707 -1.189830958843231 2.2582098245620732 0.0475402269512415 1.6029022932052615 2.8850580453872685 2.6460717916488652 2.2582098245620732 -0.50973039865493763 -0.079534363001584993 1.1991835832595827 -1.9599710702896116 -0.16922674328088758 2.4157969951629643 -2.1725847721099849 0.35419057309627539 1.4354467988014223 -4.4145612716674796 -0.11560328677296637 -0.1439145356416702 1.2125198841094973 -0.26542605459690088 0.78348612785339367 1.9845774769783022 -0.052726367488503449
decision_type=2 2 2 2 2 2 2 2 2 2 2 2 2 2 2 2 2 2 2 2 2 2 2 2 2 2 2 2 2 2
left_child=1 5 3 9 8 13 -7 15 -3 14 -10 12 -4 21 -2 20 28 -13 -19 -15 -5 25 23 24 -23 -1 27 -27 -12 -25
right_child=2 4 11 7 -6 6 -8 -9 10 -11 16 17 -14 19 -16 -17 -18 18 -20 -21 -22 22 -24 29 -26 26 -28 -29 -30 -31
leaf_value=0.0070307135944241627 -0.0034188338193002262 -0.00048206280384698616 0.00067377087779081212 -0.0050728567575772168 0.0044427194385243422 0.0074852110710667734 0.0036989204629284214 -0.013726700424051615 0.0010670381483441334 0.0034944010376732285 0.041350225606172006 0.0029554989000585329 -0.0063848439478212185 0.0049383106625131151 -0.0014875971301597422 0.0015930298561968757 0.0073852942593128808 0.011464750436763524 0.085034146479907188 -0.00048392878948860167 -0.0083567533876139286 0.20327098822853307 0.012507939038846018 -0.036687451285338228 0.067192212936574958 -0.1434809428496239 -0.0046535328595664806 -0.018232713154479621 -0.015302954593536387 0.064043226500027292
leaf_weight=10614.229959666729 317153.40957134962 642189.95603746176 179301.05134558678 113261.7793340683 72654.444803059101 113498.63128173351 270984.7465480566 18704.644120812416 675233.72247254848 29437.150813043118 807.57236969470978 18623.990411937237 20032.649051785469 20993.413409054279 429384.38022077084 9731.3740575909615 14003.569682896137 7726.3446261286736 109.6778170466423 89166.929808855057 74942.34228926897 64.641032695770264 4826.4831218719482 81.616350889205933 68.736364603042603 74.659174919128418 1632.0417847633362 103.35190725326538 181.0472594499588 104.02257800102234
leaf_count=6769 158657 318526 84436 59081 39103 61481 137527 10934 322635 17479 694 8974 9747 10296 207688 5583 8216 4839 71 41299 39183 21 1395 24 22 19 498 30 112 29
internal_value=0 0.00152112 -0.00239363 -0.00308505 0.000617585 0.00399963 0.00481662 -0.0066566 0.000409007 -0.00208793 0.00123806 0.000645955 -3.56062e-05 0.00154037 -0.00230805 -0.00598848 0.00894087 0.00578043 0.0124945 0.000549395 -0.00638049 0.00775362 0.0158965 0.0671622 0.133142 0.00438128 -0.0111551 -0.0707628 0.0309753 0.0197569
internal_weight=0 1.91728e+06 1.21841e+06 992615 1.40507e+06 512214 384483 216640 1.33242e+06 775975 690226 225794 199334 127730 746538 197935 14992.2 26460 7836.02 110160 188204 17569.8 5145.5 319.016 133.377 12424.3 1810.05 178.011 988.62 185.639
internal_count=1555368 948696 606672 498605 689286 259410 199008 114781 650183 383824 331657 108067 94183 60402 366345 103847 9022 13884 4910 51595 98264 8807 1491 96 43 7316 547 49 806 53
is_linear=0
shrinkage=0.05


Tree=10
num_leaves=31
num_cat=0
split_feature=8 58 61 8 53 58 70 61 8 24 56 31 58 17 31 10 62 26 59 31 0 39 72 31 52 8 0 40 62 6
split_gain=3761.44 1858.09 1422.51 1192.35 1070.87 700.374 663.338 550.401 518.818 509.824 513.632 492.974 469.856 436.738 644.958 414.931 601.942 484.714 372.352 638.199 567.88 457.925 614.895 454.228 390.18 348.445 333.432 432.106 324.368 321.419
threshold=-0.08004495874047278 -0.93909701704978932 1.3787860274314883 0.61482802033424389 -0.040963128209114068 -1.2474264502525327 -0.027668855153024193 -0.46202656626701349 -0.71972429752349842 1.6628342270851137 -2.2825243473052974 -0.17446948587894437 0.51243200898170482 2.7620122432708745 -0.11051354929804801 -2.5750091075897212 3.7426441907882695 0.77991005778312694 0.37512603402137762 1.5064079761505129 16.500000000000004 2.6661912202835087 2.0153484344482426 -0.41521744430065149 0.010035294573754074 1.5901519656181338 780.50000000000011 -2.1252782344818111 1.8397754430770876 -2.3692579269409175
decision_type=2 2 2 2 2 2 2 2 2 2 2 2 2 2 2 2 2 2 2 2 2 2 2 2 2 2 2 2 2 2
left_child=4 6 3 12 5 13 -2 -7 -6 -8 -11 -5 -3 -1 -15 18 -17 -18 20 23 -4 -22 -23 24 28 -13 -14 -28 -20 -12
right_child=1 2 15 11 8 7 9 -9 -10 10 29 25 26 14 -16 16 17 -19 19 -21 21 22 -24 -25 -26 -27 27 -29 -30 -31
leaf_value=0.0034646217375445712 6.8241017587657255e-05 -0.0011489789598123806 0.14876000463917083 -0.0037482723763400585 0.0046092534018747086 -0.0024332535960604768 0.0023776554137293839 0.0005883639963616624 0.0020047394777500376 0.11861145645950777 0.057123240784922862 -0.0060118892484715657 -0.0026798025547216929 -0.24375907874750691 0.0036824831385053845 0.0021729084602770464 0.011312512121387067 0.04711386537775232 0.019678073323106469 -0.23370344953701305 0.00026679225200953023 -0.0089346703956011166 -0.2303867426895069 0.0060733934779238739 -0.032502929316169819 -0.012283748509156747 -0.023347141200855473 -0.0057352795979823783 -0.14292107913823807 0.0083792106395158203
leaf_weight=162355.47084835172 362223.3077314496 889009.52557858825 61.424057006835938 319363.10497254133 282788.59826603532 205218.62479400635 115652.18822389841 567394.63457593322 590405.01766493917 106.87223887443542 341.40344643592834 96811.63454502821 353330.60916015506 44.257055878639221 65.02949595451355 134804.60870590806 7534.5479119420052 1081.0771477818489 37.814531803131104 38.698045969009399 2131.0222243666649 79.825405240058899 51.613684177398682 584.01239347457886 658.82112038135529 28713.384932905436 3781.495284050703 44081.431431472301 162.38457465171814 36004.369629859924
leaf_count=80308 182204 455206 43 170523 162622 108205 69278 304704 317403 24 76 63056 196765 17 37 73605 4363 334 22 19 1180 41 12 392 307 19724 1844 23240 88 7755
internal_value=0 -0.00143151 -0.00215925 -0.00255964 0.00158908 0.000413267 0.00123183 -0.000214227 0.00284823 0.00400282 0.00915891 -0.00479174 -0.00178996 0.00339736 -0.0965223 0.00255942 0.00299181 0.0158048 -0.0137357 -0.0333223 -0.0012472 -0.00531977 -0.0958948 -0.0279486 -0.0510787 -0.00744655 -0.00321033 -0.00712674 -0.112209 0.00883707
internal_weight=0 2.39665e+06 1.88232e+06 1.73509e+06 1.80827e+06 935078 514328 772613 873194 152105 36452.6 444888 1.2902e+06 162465 109.287 147226 143420 8615.63 3805.62 1481.73 2323.89 2262.46 131.439 1443.03 859.02 125525 401194 47862.9 200.199 36345.8
internal_count=2243397 1270101 1010764 930358 973296 493271 259337 412909 480025 77133 7855 253303 677055 80362 54 80406 78302 4697 2104 828 1276 1233 53 809 417 82780 221849 25084 110 7831
is_linear=0
shrinkage=0.05


Tree=11
num_leaves=31
num_cat=0
split_feature=8 47 15 53 51 27 24 49 0 58 10 71 8 0 40 49 61 8 61 25 8 51 6 71 31 32 31 32 40 25
split_gain=3394.7 1706.63 1012.58 966.462 893.236 1181.41 836.452 704.408 638.949 632.088 580.266 553.074 520.652 505.463 730.863 587.293 571.041 661.594 496.873 491.383 468.233 477.004 464.486 463.325 415.113 408.485 356.77 775.51 587.896 612.14
threshold=-0.08004495874047278 0.19000709801912311 -0.1350268945097923 -0.040963128209114068 4.1145107746124276 0.92366930842399608 1.6628342270851137 4.5362806320190439 88.500000000000014 -1.2474264502525327 -2.5750091075897212 0.03987956419587136 0.33834600448608404 780.50000000000011 -1.8560752272605894 -4.8035571575164786 0.69743776321411144 0.61482802033424389 -0.47875411808490748 1.2880305051803591 -0.71972429752349842 -4.105841636657714 -2.3692579269409175 1.4168522953987124 -0.33549778163433069 -0.61139839887619007 -0.44350565969943995 -0.25125379860401148 0.40827614068984991 1.1481937170028689
decision_type=2 2 2 2 2 2 2 2 2 2 2 2 2 2 2 2 2 2 2 2 2 2 2 2 2 2 2 2 2 2
left_child=3 2 12 9 13 10 -4 25 22 -1 11 -6 -2 16 19 -16 17 -3 -11 -15 21 -5 -8 -21 -13 -7 -24 28 29 -28
right_child=1 4 6 20 5 7 8 -9 -10 18 -12 24 -14 14 15 -17 -18 -19 -20 23 -22 -23 26 -25 -26 -27 27 -29 -30 -31
leaf_value=0.0032274945447535344 -0.00041234287569386806 -0.0024986718608864806 0.00044250506624624096 -0.017269948764357664 0.049273198622449589 0.078910420099498835 0.056305307279034766 0.13608066595188489 0.0032176983001151837 -0.0023481100367748705 0.011367258820993906 -0.10491221531258831 -0.0028250066170970511 -0.01288600038129281 -0.1466209403247879 -0.0049959415357406977 4.0586933474375658e-05 -0.0062095640438224213 0.00054616772722743242 -0.043802111212706885 0.001904502502781317 0.0045735809921769498 0.0076629823394370024 0.045375803351902402 0.014528422526525704 0.014769120026839073 0.01127822133687734 -0.0086266622264925576 0.0085913612810978295 0.058488924879529662
leaf_weight=162464.75740018487 634651.22314253449 491014.8230663836 404965.22691118717 2521.775107562542 116.8263925909996 424.24377006292343 583.94426298141479 243.04591506719589 80875.197048425674 200124.2221596837 3492.8996712267399 289.27940773963928 345259.50084757805 7505.3901444673538 73.258988976478577 91991.083940833807 147395.73008617759 159003.05417275429 572489.03721025586 2380.3411726951599 590405.01766493917 280266.82315847278 18784.669478654861 155.1430811882019 97.183557748794556 598.26147103309631 997.06962823867798 1658.1009585857391 1884.5695948600769 2205.1102659702301
leaf_count=80362 319247 262628 245146 1677 69 119 139 94 17768 105626 2281 149 192219 4441 23 49152 77655 92326 307283 735 317403 160945 4028 47 68 236 248 491 393 399
internal_value=0 -0.00135994 -0.000320867 0.00150963 -0.00307322 0.0174678 0.00148131 0.0595684 0.00541333 0.000392604 0.00413496 -0.0460582 -0.00126242 -0.00319338 -0.00650566 -0.00510864 -0.00276926 -0.00340641 -0.000203515 -0.0193149 0.00270581 0.00437879 0.0122133 -0.0383454 -0.0748766 0.0413817 0.0112048 0.0210689 0.0307487 0.0437888
internal_weight=0 2.39665e+06 1.49186e+06 1.80827e+06 904781 5261.74 511954 1265.55 106989 935078 3996.19 503.289 979911 899519 102105 92064.3 797414 650018 772613 10040.9 873194 282789 26113.5 2535.48 386.463 1022.51 25529.5 6744.85 5086.75 3202.18
internal_count=2243397 1270101 780078 973296 490023 3016 268612 449 23466 493271 2567 286 511466 487007 54398 49175 432609 354954 412909 5223 480025 162622 5698 782 217 355 5559 1531 1040 647
is_linear=0
shrinkage=0.05


Tree=12
num_leaves=31
num_cat=0
split_feature=8 58 61 8 53 58 70 61 58 6 32 17 31 48 40 39 72 62 22 9 40 26 17 55 8 24 0 62 0 40
split_gain=3065.86 1772.46 1276.07 1239.28 832.034 606.646 534.326 516.168 441.739 440.895 423.406 418.401 560.551 410.711 377.604 437.645 614.186 417.92 403.91 363.855 378.354 363.733 358.367 323.911 317.319 303.009 446.496 867.963 278.836 367.401
threshold=-0.14038917422294614 -1.0281347036361692 0.95514351129531871 0.6468639373779298 0.22276951372623446 -1.2474264502525327 0.12292736023664476 -0.54966694116592396 0.35781951248645788 -2.3692579269409175 -0.28396697342395777 2.7620122432708745 -0.11051354929804801 0.4307068288326264 -2.5922013521194454 2.6661912202835087 2.0153484344482426 3.7426441907882695 3.0100612640380864 -0.523909032344818 -3.8861460685729976 0.56742730736732494 2.7620122432708745 0.15151373296976092 2.7780753374099736 -0.11186247691512106 24.500000000000004 1.9686985015869143 780.50000000000011 -2.1252782344818111
decision_type=2 2 2 2 2 2 2 2 2 2 2 2 2 2 2 2 2 2 2 2 2 2 2 2 2 2 2 2 2 2
left_child=4 6 3 8 5 11 -2 -7 -3 13 22 -1 -13 -8 15 18 -17 23 25 -11 -21 -19 -5 -16 -12 -4 27 -27 -10 -30
right_child=1 2 14 10 -6 7 9 -9 28 19 24 12 -14 -15 17 16 -18 21 -20 20 -22 -23 -24 -25 -26 26 -28 -29 29 -31
leaf_value=0.0034542904927229497 0.00061136736360320183 -0.00095379696733577455 0.0071013077150179071 -0.0031189490509336416 0.0030696764046150623 -0.0021077673372550667 0.001542818068525912 0.00084387070233242891 -0.0023538922640847274 -0.00057923321033712648 -0.0059283840438818479 -0.23173248440796473 0.0039452952360019824 0.070972485878543032 0.0033621618131354581 -0.001814750940195874 -0.22111906671121037 0.0082910711054313569 0.097929181782477642 0.10121699688662106 0.0057809178503676825 0.03676120391985073 0.11547749147109683 -0.00036562618342198113 -0.014913687277481808 0.065765057930440962 -0.013593228407598286 -0.180217559307149 -0.020695936643236542 -0.0049451096371755099
leaf_weight=174343.26394274831 382876.87315905094 944309.80727159977 1913.2868892550468 186242.74571478367 602799.58790361881 193755.81982523203 383.40167486667633 628819.24477812648 471542.46910142899 29170.52357339859 187792.16565436125 44.257055878639221 58.685358881950378 479.26429015398026 114673.99250096083 70.36686635017395 58.441435933113098 7745.8749568462372 88.351439476013184 103.97977447509766 84298.202108830214 1311.879361987114 63.719566762447357 118477.62948197126 10368.350672602654 53.793970823287964 4564.8940317630768 107.58042514324188 3972.5493017137051 54425.807590037584
leaf_count=86193 191558 480496 1608 93888 340778 101786 190 337349 260766 15216 120452 17 35 177 62282 35 14 4558 28 37 42541 429 32 63408 7186 15 1625 54 1971 28673
internal_value=0 -0.00117764 -0.00181114 -0.00226148 0.00160322 0.000716592 0.00150737 0.000148619 -0.00160217 0.00450521 -0.00478964 0.00339479 -0.0973774 0.0401153 0.00154966 -0.0100213 -0.101315 0.00187723 -0.00827341 0.00423472 0.00589849 0.0124145 -0.00307839 0.00146786 -0.00639852 -0.00968663 -0.0164827 -0.0982195 -0.00275751 -0.00601656
internal_weight=0 2.6051e+06 2.10778e+06 1.85872e+06 1.59982e+06 997021 497312 822575 1.47425e+06 114435 384467 174446 102.942 862.666 249066 6856.72 128.808 242209 6727.91 113573 84402.2 9057.75 186306 233152 198161 6639.56 4726.27 161.374 529941 58398.4
internal_count=2243397 1377239 1127520 993464 866158 525380 249719 439135 771906 58161 221558 86245 52 367 134056 3379 49 130677 3330 57794 42578 4987 93920 125690 127638 3302 1694 69 291410 30644
is_linear=0
shrinkage=0.05


Tree=13
num_leaves=31
num_cat=0
split_feature=8 47 24 0 53 10 51 26 27 49 27 58 61 8 21 61 8 1 51 30 27 16 70 18 62 71 8 51 63 63
split_gain=2786.59 1455.03 840.117 835.867 805.748 798.1 773.545 1134.83 629.23 659.596 578.805 515.723 514.242 489.14 478.906 527.601 679.879 465.681 658.82 451.873 444.67 439.938 430.403 415.443 522.073 413.443 412.569 431.272 412.226 483.064
threshold=-0.08004495874047278 0.011378780007362367 1.4925556778907778 16.500000000000004 -0.040963128209114068 -0.21025928854942319 4.1145107746124276 -1.1654018759727476 1.0734494328498843 4.5362806320190439 0.73602977395057689 -1.2291420698165891 1.1910800337791445 0.66296783089637767 2.2163877487182622 0.69743776321411144 0.69749185442924511 18.000000000000004 0.85752671957016002 0.90039154887199413 0.92366930842399608 -0.0062475402373820535 -0.18482305854558942 3.3212771415710454 -2.9037340879440303 0.11566299945116044 -0.71972429752349842 -4.105841636657714 -0.25905464589595789 -0.15784174203872678
decision_type=2 2 2 2 2 2 2 2 2 2 2 2 2 2 2 2 2 2 2 2 2 2 2 2 2 2 2 2 2 2
left_child=4 2 12 5 11 17 14 25 -9 -10 19 23 13 -2 15 16 -3 -4 -19 -7 -12 -5 -13 -1 -25 -8 27 -6 -22 -30
right_child=1 6 3 21 26 10 7 8 9 -11 20 22 -14 -15 -16 -17 -18 18 -20 -21 28 -23 -24 24 -26 -27 -28 -29 29 -31
leaf_value=0.0029337960693589199 -0.00054851753657154338 -0.0022995827923758777 0.0162778761990858 0.00043902950598059224 -0.016554050002585231 -0.054037542894751669 0.0048944764712339009 0.01602068638820961 0.040024520394018125 0.13758612843240603 0.059038623477253763 0.00087034387237943452 0.003331233847397236 -0.0032944331405883502 -0.0078786649050383226 -6.7560215956495684e-05 -0.0058361405311439275 0.038451808014775775 0.1160691152896914 0.00029159520092022286 -0.010423323636932482 0.004545933168779554 -0.0015085999069970209 -0.21618294955189987 0.0025928016038748044 -0.064214079346234118 0.0017082260032686685 0.0042160061950303742 0.08419021209948882 0.015964456211054325
leaf_weight=166567.04516872764 740557.97843855619 651405.86751186848 932.23046779632568 223958.82354617119 2521.775107562542 533.78689503669739 371.21879982948303 3465.3055225014687 848.41083490848541 217.69847410917282 566.3152379989624 423122.18136674166 68659.161923080683 207657.1936019063 43123.981155544519 182752.66300916672 171721.92909455299 870.88758254051208 398.49167323112488 1352.4314703941345 1416.5998294353485 91993.085629224777 345278.20251271129 48.830775558948517 61.756946384906769 518.97695019841194 590405.01766493917 280266.82315847278 283.6681752204895 3038.4711546897888
leaf_count=82316 451040 345170 291 51642 1677 127 270 2153 301 88 128 232580 43864 133519 22432 95801 99846 165 79 397 312 21451 178320 18 37 310 317403 160945 73 642
internal_value=0 -0.00123168 -0.000139739 0.00207178 0.00136819 0.0167704 -0.00262166 0.0162161 0.0263551 0.0599465 0.00870614 0.000348263 -0.000847304 -0.00114987 -0.00271902 -0.00249781 -0.00303738 0.0431114 0.0628179 -0.0150832 0.0171645 0.0016348 -0.000198627 0.00286948 -0.0940091 -0.0353953 0.0024604 0.00403079 0.0121602 0.0217901
internal_weight=0 2.39665e+06 1.34222e+06 325345 1.80827e+06 9392.88 1.05443e+06 5421.61 4531.41 1066.11 7191.27 935078 1.01687e+06 948215 1.049e+06 1.00588e+06 823128 2201.61 1269.38 1886.22 5305.05 315952 768400 166678 110.588 890.196 873194 282789 4738.74 3322.14
internal_count=2243397 1270101 703730 75307 973296 2214 566371 3122 2542 389 1679 493271 628423 584559 563249 540817 445016 535 244 524 1155 73093 410900 82371 55 580 480025 162622 1027 715
is_linear=0
shrinkage=0.05


Tree=14
num_leaves=31
num_cat=0
split_feature=8 58 61 8 51 59 58 61 8 51 26 26 10 70 56 60 21 6 8 27 54 13 19 15 31 8 72 10 48 43
split_gain=2526.06 1588.22 1093.89 1059.93 665.469 644.069 576.747 905.361 541.405 482.473 747.659 494.159 473.047 471.653 450.229 436.161 395.975 393.068 379.303 375.753 361.917 361.37 620.262 341.46 318.095 317.863 312.841 306.329 291.822 289.228
threshold=-0.21649877727031705 -1.0605771541595457 1.3787860274314883 0.51003429293632518 -4.105841636657714 -2.4890837669372554 -1.1074272394180296 -0.5306681990623473 -1.1125795245170591 4.1145107746124276 -1.349674344062805 0.77991005778312694 -1.8364087939262388 -0.0521500427275896 -0.36194035410881037 -2.8804336786270137 1.3185371160507204 -2.3692579269409175 4.0026712417602548 2.314760804176331 -0.54730746150016774 13.500000000000002 0.5825660526752473 -0.3744226843118667 1.9017226696014407 2.1097033023834233 0.95208728313446056 -3.0817289352416988 -1.3968465924262998 1.7171912193298342
decision_type=2 2 2 2 2 2 2 2 2 2 2 2 2 2 2 2 2 2 2 2 2 2 2 2 2 2 2 2 2 2
left_child=4 13 3 16 5 29 -6 -8 -9 18 12 27 -11 -2 25 -15 20 19 26 -17 -3 22 -19 -20 28 -5 -4 -12 -7 -1
right_child=1 2 9 14 6 24 7 8 -10 10 11 -13 -14 15 -16 17 -18 21 23 -21 -22 -23 -24 -25 -26 -27 -28 -29 -30 -31
leaf_value=-0.067039457996117074 0.00047084361451920069 -0.0020407521959264889 0.0034997493067937648 -0.0048912550906212394 0.0037903611285932393 -0.030579270972417302 -0.0014474979924230308 0.0048598740391494095 0.0014342543535441235 -0.077862675757030292 0.1086269999487888 0.06996363626060581 0.0077191212938012626 -0.0085315798512641851 -0.0026419659063377406 0.020413502479957862 -0.0032463537918238669 0.0075898585173622309 -0.14685584372528879 0.096415203604359678 -0.00031237386970992226 0.0025615196320939457 0.14170229436301429 -0.0079429226161183888 0.10379329381233759 -0.01119336066662808 -0.0033041868301406257 0.016807790769816321 -0.005903732212495575 -0.20276508786266062
leaf_weight=163.29692596197128 346370.86842888594 445033.78811225295 125626.95884665847 175393.00050479174 270613.96563780308 1656.6154325008392 247644.60355728865 137523.51970010996 715074.62342259288 298.73626524209976 93.298112154006958 555.35526597499847 351.3940544128418 7027.9344228804111 360192.40435305238 1008.0827274918556 199466.50257754326 43973.597737193108 44.491785943508148 193.91043883562088 948216.71125045419 120566.53449055552 86.383262872695923 7752.5987927913666 59.145964384078979 22584.58807221055 19519.432800382376 3442.9362358152866 4329.8587046563625 51.67179536819458
leaf_count=99 173767 226256 68192 98551 138358 1017 131637 84795 391883 167 50 167 259 4061 202856 477 103271 13388 22 41 501350 68313 26 4448 25 13583 10980 2142 3199 17
internal_value=0 -0.00096317 -0.00152513 -0.00181983 0.00164815 -0.0146162 0.00172243 0.00121381 0.0019868 0.00249462 0.0182022 0.0261164 -0.0316059 0.00153541 -0.00369476 0.00366861 -0.00116276 0.00418566 0.00200764 0.0326744 -0.000864455 0.00397766 0.0078528 -0.00873559 -0.0115921 -0.00561018 0.00258475 0.0192303 -0.0127321 -0.0996637
internal_weight=0 2.8278e+06 2.30857e+06 2.15089e+06 1.37712e+06 6260.59 1.37086e+06 1.10024e+06 852598 157685 4741.72 4091.59 650.13 519227 558170 172856 1.59272e+06 165829 152943 1201.99 1.39325e+06 164627 44060 7797.09 6045.62 197978 145146 3536.23 5986.47 214.969
internal_count=2243397 1492367 1232294 1145867 751030 4357 746673 608315 476678 86427 2785 2359 426 260073 314990 86306 830877 82245 83642 518 727606 81727 13414 4470 4241 112134 79172 2192 4216 116
is_linear=0
shrinkage=0.05


Tree=15
num_leaves=31
num_cat=0
split_feature=8 47 15 53 51 26 24 24 58 37 0 17 0 31 35 68 39 24 22 61 8 40 58 8 71 61 68 6 10 80
split_gain=2301.6 1258.84 803.567 735.79 654.105 958.575 650.065 648.417 613.777 541.401 508.894 412.181 391.434 610.813 510.57 502.871 498.31 537.304 827.049 447.52 484.65 431.941 387.481 386.811 386.454 385.787 367.761 348.191 326.935 326.348
threshold=-0.070882212370634065 0.19000709801912311 -0.1350268945097923 0.22276951372623446 4.1145107746124276 -1.349674344062805 1.2209334969520571 1.6628342270851137 -1.4099287986755369 1.6901697516441347 88.500000000000014 2.7620122432708745 792.50000000000011 -0.86203354597091664 2.3868339061737065 1.5474808812141421 -0.73826989531517018 2.2311236858367924 0.41431412100791937 0.31557108461856848 0.88255527615547191 -1.2614820599555967 2.5224704742431645 0.33834600448608404 0.03987956419587136 -0.70971891283988942 2.4519145488739018 -2.3692579269409175 -2.5750091075897212 0.058539727702736861
decision_type=2 2 2 2 2 2 2 2 2 2 2 2 2 2 2 2 2 2 2 2 2 2 2 2 2 2 2 2 2 2
left_child=3 2 23 8 12 24 -7 -4 11 26 27 -1 19 15 16 -14 17 -15 -19 20 -3 -20 -18 -2 -6 -10 29 -9 -12 -8
right_child=1 4 7 -5 5 6 9 10 25 -11 28 -13 13 14 -16 -17 22 18 21 -21 -22 -23 -24 -25 -26 -27 -28 -29 -30 -31
leaf_value=0.0033696225555948055 -0.00033488581371866492 -0.0025773499320703216 0.00045849915936458925 0.0025173580375781107 0.01300777636250137 0.011670480657189489 0.015972418532346554 0.049250154981839551 -0.0021730526116202592 0.17300011206988242 -0.057324706263494285 -0.11532177630152918 -0.12924388903225323 -0.0079818885664406838 -0.18626175991717428 -0.029872028519674021 -0.0019764942691907158 -0.11391103433473809 -0.048833946072303361 -0.00059353696651627823 -0.0068779581758385278 -0.0046884065835409439 0.12234640864763557 -0.0024243774167008324 -0.067717965905658997 0.00043649392650522485 -0.023946520954158473 0.010085822144601573 0.0030585158780996901 0.076931582845607069
leaf_weight=160926.48218494654 617867.43092870712 483045.15948048234 400476.04747089744 687059.97948619723 221.90637677907944 3332.4900608956814 330.25864458084106 580.57299160957336 171010.02089414001 88.844361066818237 224.79976367950439 73.179060578346252 156.51383519172668 36824.985048830509 39.06074532866478 682.35861784219742 44073.971928954124 272.46971583366394 906.52671051025391 243866.66016966105 75788.487934112549 1425.3050622940063 62.763315618038177 345259.50084757805 446.69605016708374 824393.99737563729 166.01287007331848 25228.605244636536 79430.730476856232 654.99202537536621
leaf_count=78810 310946 261272 242428 386165 157 2302 80 138 90656 24 37 36 54 20703 21 196 23387 64 173 128459 45858 305 26 192219 259 435484 43 5493 17465 137
internal_value=0 -0.00113612 -0.000236366 0.00122141 -0.0026173 0.0149943 0.0231709 0.00137707 0.000451444 0.0540753 0.00486512 0.00331567 -0.00272135 -0.00595948 -0.00553352 -0.0484125 -0.00544904 -0.00953408 -0.0314821 -0.0023807 -0.00316059 -0.0218505 -0.0017997 -0.00108392 -0.0409254 -1.18251e-05 0.0448978 0.0109668 0.00288811 0.0564979
internal_weight=0 2.36145e+06 1.46907e+06 1.84346e+06 892385 5241.2 4572.6 505941 1.1564e+06 1240.11 105465 161000 887144 84444 83605.1 838.872 83566 39429.3 2604.3 802700 558834 2331.83 44136.7 963127 668.602 995404 1151.26 25809.2 79655.5 985.251
internal_count=2243397 1252246 768726 991151 483520 3002 2586 265561 604986 284 23133 78846 480518 44929 44679 250 44658 21245 542 435589 307130 478 23413 503165 416 526140 260 5631 17502 217
is_linear=0
shrinkage=0.05


Tree=16
num_leaves=31
num_cat=0
split_feature=8 58 61 8 51 53 59 70 7 51 27 26 10 9 27 21 21 40 49 56 40 8 58 61 25 39 74 7 54 31
split_gain=2104.93 1371.36 911.746 930.014 602.201 587.309 570.197 522.101 446.059 431.557 661.273 424.246 425.367 379.026 922.213 366.931 364.978 352.837 351.317 341.731 320.802 311.421 310.562 374.875 307.88 324.942 298.485 292.4 289.417 287.012
threshold=-0.21649877727031705 -0.84080827236175526 0.95514351129531871 0.69749185442924511 -4.105841636657714 -0.040963128209114068 -2.4890837669372554 -0.094583779573440538 -0.31414373219013209 4.1145107746124276 1.0734494328498843 -1.349674344062805 -1.8364087939262388 4.1696288585662851 0.16898478567600253 1.6029478907585146 2.317305445671082 -1.6736942529678343 4.5362806320190439 -0.5468861162662505 -3.0462981462478633 -1.2316375970840452 -1.5795886516571043 -1.1554756164550779 0.27706792950630194 2.6661912202835087 1.3821409344673159 3.8838601112365727 -0.54730746150016774 1.9017226696014407
decision_type=2 2 2 2 2 2 2 2 2 2 2 2 2 2 2 2 2 2 2 2 2 2 2 2 2 2 2 2 2 2
left_child=4 7 3 15 6 22 -1 -2 -9 17 11 12 -11 20 -15 28 21 24 -12 -5 26 -7 27 -24 -4 -26 -10 -6 -3 -8
right_child=1 2 9 19 5 16 29 8 13 10 18 -13 -14 14 -16 -17 -18 -19 -20 -21 -22 -23 23 -25 25 -27 -28 -29 -30 -31
leaf_value=-0.093987989001634631 7.3191768870057897e-05 -0.0021918043954453955 0.0010224413287133541 -0.0066979673783455363 0.0033982107687306456 0.0050452751792358112 -0.012203760137920652 0.00082209668758349548 -0.010116527985960345 -0.069324844275845995 0.040354455721882114 0.014710926069377149 0.0084488102547704471 0.0039687691449850869 0.21387297453780182 -0.0039705328416219151 -0.0054902977970726456 0.0015965281278050719 0.12230049326014468 -0.0032155692718005089 0.0051691922237750293 0.0022726575518447084 -0.0030866366856356024 0.00064730044693748481 -0.01144857653543898 -0.10196684796779752 -0.12989050620568737 0.085401029944448772 -0.00066106590183541555 0.098482210092400865
leaf_weight=214.96872133016586 466549.34525913 451044.28757739067 8211.0490339100361 102153.66328272223 79052.658983170986 125026.45593616366 5986.4741371572018 119156.8775267601 138.83127421140671 329.03665548563004 714.0908716917038 3494.7257833480835 377.52214998006821 175.01848727464676 74.644851803779602 124828.0091034472 13551.455914765596 221023.31653767824 160.12022113800049 226977.9641251862 114600.11870452762 533147.31988334656 76710.735695153475 543259.22851282358 8537.191819190979 100.31051754951477 83.181953549385071 108.85739237070084 979070.20280241966 59.145964384078979
leaf_count=116 234095 232554 6055 59744 39368 73588 4216 61175 56 182 270 2227 284 114 23 64785 7434 119454 78 131173 55907 291718 42002 292514 2808 17 28 49 521338 25
internal_value=0 -0.000878109 -0.00151012 -0.00188185 0.00150563 0.00157628 -0.0139663 0.0010402 0.00296633 0.00137267 0.0157993 0.0075667 -0.0277695 0.00518668 0.0667264 -0.00137077 0.00263211 0.00106485 0.0553637 -0.00429641 0.00505287 0.00279934 0.000561851 0.000185289 -0.00590981 -0.0124998 -0.0549924 0.00351098 -0.00114385 -0.0111209
internal_weight=0 2.8278e+06 2.12702e+06 1.88407e+06 1.37712e+06 1.37086e+06 6260.59 700778 234229 242947 5075.5 4201.28 706.559 115072 249.663 1.55494e+06 671725 237872 874.211 329132 114822 658174 699131 619970 16848.6 8637.5 222.013 79161.5 1.43011e+06 6045.62
internal_count=2243397 1492367 1140969 1009594 751030 746673 4357 351398 117303 131375 3041 2693 466 56128 137 818677 372740 128334 348 190917 55991 365306 373933 334516 8880 2825 84 39417 753892 4241
is_linear=0
shrinkage=0.05


Tree=17
num_leaves=31
num_cat=0
split_feature=8 58 24 0 10 27 26 62 26 10 53 17 49 58 76 22 10 24 19 58 30 26 61 8 24 58 31 0 30 22
split_gain=1908.61 1102.58 722.307 780.841 996.668 778.247 813.619 641.736 790.381 756.313 605.472 541.223 512.691 505.045 423.614 460.015 440.611 397.642 490.426 460.905 392.307 468.053 389.721 510.97 426.797 539.137 391.004 392.183 429.768 383.733
threshold=-0.08004495874047278 0.051931180059909827 1.6628342270851137 36.500000000000007 -1.9587267637252805 1.8977117538452151 0.56742730736732494 3.7426441907882695 -1.3664305210113523 -2.2951166629791255 0.22276951372623446 0.53720885515213024 3.3567041158676152 -0.19381774216890332 -0.018888513557612892 1.7766242623329165 0.20164915919303897 2.0478563308715825 -0.096949327737092958 2.1665648221969609 -0.2806600928306579 0.95294025540351879 0.31557108461856848 0.39251053333282476 2.0478563308715825 1.1295577287673952 -0.52550655603408802 801.50000000000011 0.70613965392112743 -0.70757973194122303
decision_type=2 2 2 2 2 2 2 2 2 2 2 2 2 2 2 2 2 2 2 2 2 2 2 2 2 2 2 2 2 2
left_child=10 2 -2 4 -4 14 -7 22 9 11 13 -9 -10 -1 15 -6 -16 18 -14 29 -8 -22 23 -3 -24 -26 27 -27 -29 -20
right_child=1 7 3 -5 5 6 20 8 12 -11 -12 -13 17 -15 16 -17 -18 -19 19 -21 21 -23 24 -25 25 26 -28 28 -30 -31
leaf_value=0.0014580492864233235 -0.00067613026284558161 -0.0020426646701912367 0.17558906769298455 0.0015038341262186821 -0.015246453639218456 0.15721941394769423 -0.026966804588976462 -0.093045950232455224 0.0077773171282954886 0.0047064597001929579 0.0023192050733729301 0.051439656699265618 -0.0067609618358493787 -0.00065367503042964908 0.021877453718378445 0.013260078675148598 -0.0066044302639779355 0.079062040467605024 -0.052228729444047675 0.090420095637046324 -0.0059556498507781939 0.042404853961555709 -0.00028330020269869035 -0.0048612456293784297 -0.0020614697531473394 -0.01757764527189452 -0.0008213641044070828 -0.064240578022976086 0.030331679322135364 0.037956910072086701
leaf_weight=580260.91930890083 1090016.653298676 451688.3557100296 93.365966796875 266374.41058540344 3539.2613406181335 125.80982208251953 299.00556230545044 460.45854085683823 7613.0223359763622 767.13358044624329 675067.99900215864 75.431429922580719 768.04091024398804 552942.71439003944 5138.7395234107971 2358.1578307151794 1845.5393023490906 407.11301779747009 137.65056055784225 374.68477272987366 622.09312105178833 2556.1066079139709 278107.75652804971 249678.09086883068 22757.840526580811 6019.234806060791 2985.2641425132751 872.56400036811829 139.3077335357666 824.08455213904381
leaf_count=290421 641364 244332 16 58670 852 16 78 238 4098 508 379766 52 356 303109 1221 521 412 82 86 240 126 468 161175 147868 4788 1152 636 185 27 534
internal_value=0 -0.00101785 -9.18239e-05 0.0021591 0.0126878 0.0117651 0.0323071 -0.00225986 0.00952251 -0.0271316 0.0011338 -0.0727083 0.0142399 0.000427641 0.00601955 -0.00384776 0.0143513 0.033829 0.0250785 0.0433767 0.0277876 0.0329389 -0.00239287 -0.00304605 -0.000919279 -0.00631592 -0.0159823 -0.0224193 -0.0512205 0.0250489
internal_weight=0 2.39665e+06 1.37297e+06 282952 16578.1 16484.7 3603.02 1.02368e+06 11427.6 1303.02 1.80827e+06 535.89 10124.6 1.1332e+06 12881.7 5897.42 6984.28 2511.57 2104.46 1336.42 3477.21 3178.2 1.01225e+06 701366 310882 32774.2 10016.4 7031.11 1011.87 961.735
internal_count=2243397 1270101 703744 62380 3710 3694 688 566357 6194 798 973296 290 5396 593530 3006 1373 1633 1298 1216 860 672 594 560163 392200 167963 6788 2000 1364 212 620
is_linear=0
shrinkage=0.05


Tree=18
num_leaves=31
num_cat=0
split_feature=8 58 61 8 51 59 21 53 58 31 24 6 2 0 40 25 43 31 24 22 51 27 26 8 10 49 43 70 53 60
split_gain=1748.93 1201.49 874.902 847.262 545.822 514.762 509.385 506.617 453.985 420.535 353.337 341.344 435.712 339.052 364.791 382.213 336.088 330.088 354.965 657.313 324.7 536.888 355.789 350.296 347.423 318.445 447.14 345.882 313.39 306.922
threshold=-0.21649877727031705 -1.1556919813156126 1.3787860274314883 1.0489478111267092 -4.105841636657714 -2.3098683357238765 2.135298609733582 -0.040963128209114068 0.48885835707187658 -0.13913421332836148 2.4148366451263432 -2.3692579269409175 -2.7279300689697261 789.50000000000011 -1.8560752272605894 1.2880305051803591 2.0496988296508794 -0.64118719100952137 2.1344426870346074 0.81195473670959484 4.1145107746124276 1.0734494328498843 -1.349674344062805 4.0026712417602548 -1.8364087939262388 -3.6019077301025386 2.21803891658783 0.33229355514049536 -1.0000000180025095e-35 0.1543182581663132
decision_type=2 2 2 2 2 2 2 2 2 2 2 2 2 2 2 2 2 2 2 2 2 2 2 2 2 2 2 2 2 2
left_child=4 11 3 8 5 16 7 -6 10 -5 28 12 -2 -10 15 -15 -1 18 -16 -20 23 22 24 -4 -22 26 -13 -27 -3 -12
right_child=1 2 20 9 6 -7 -8 -9 13 -11 29 25 -14 14 17 -17 -18 -19 19 -21 21 -23 -24 -25 -26 27 -28 -29 -30 -31
leaf_value=-0.049165848431444475 0.083223486123927645 -0.0015909708548777154 0.0024715695006174219 -0.0031230698875306965 0.0006459331155938276 -0.0096970811532530263 -0.0045417913710818275 0.0025937138874992517 -0.0019136945357927223 -0.0080239649481747121 0.0041840700638258775 -0.0089322565796854415 0.013202127248334989 -0.0099926433232916667 -0.0086786623718804728 -0.037852954389113402 -0.17728981228259466 -0.0031264589070331334 -0.07040762688147581 -0.0041775325926778238 -0.065867949122390759 0.051433694306186488 0.01411736175069926 -0.0083537137558794446 0.0072407107306431545 0.00098070802192015845 -0.1343287068548642 0.0046371173789449506 -2.3477084485450478e-05 -0.001858921114886843
leaf_weight=322.06874591112137 259.62919354438782 718152.76859751344 147753.36220020056 169353.81473258138 684537.5723772347 5877.6650970876217 34682.754498869181 651636.38544169068 538105.7635614574 59028.051440685987 65426.711564540863 5302.0978296995163 1539.6937732100487 4962.2482536435127 4937.3608741164207 1637.2063945531845 60.854979872703552 50482.972107410431 730.78450226783752 768.68942308425903 299.84681195020676 840.39423829317093 3288.5049213469028 7871.1244262456894 354.77343720197678 363479.31446784735 72.056944847106934 78678.428636670113 573521.77518069744 30952.135024785995
leaf_count=182 116 383279 80545 93617 366292 4153 18699 361682 300844 39697 12654 3993 755 2881 2395 505 22 27406 174 159 168 333 2053 4504 263 180463 51 39801 309556 6155
internal_value=0 -0.000799537 -0.0012475 -0.00150538 0.00137329 -0.0133566 0.00144056 0.00159584 -0.0011743 -0.00438977 -0.000677072 0.00157168 0.0233057 -0.00232151 -0.00577629 -0.0169043 -0.0695276 -0.00448608 -0.0151493 -0.0364555 0.00231845 0.0151495 0.00741633 0.00192405 -0.0262465 0.00148429 -0.0106136 0.00163134 -0.000894981 0.00224336
internal_weight=0 2.8278e+06 2.37847e+06 2.21806e+06 1.37712e+06 6260.59 1.37086e+06 1.33617e+06 1.98968e+06 228382 1.38805e+06 449331 1799.32 601625 63519.3 6599.45 382.924 56919.8 6436.83 1499.47 160408 4783.52 3943.13 155624 654.62 447532 5374.15 442158 1.29167e+06 96378.8
internal_count=2243397 1492367 1267188 1179322 751030 4357 746673 727974 1046008 133314 711644 225179 871 334364 33520 3386 204 30134 2728 333 87866 2817 2484 85049 431 224308 4044 220264 692835 18809
is_linear=0
shrinkage=0.05


Tree=19
num_leaves=31
num_cat=0
split_feature=8 58 61 53 58 8 55 51 61 59 49 21 9 37 8 31 68 26 9 49 8 24 8 61 24 21 24 61 49 35
split_gain=1624.14 1011.9 905.15 753.653 519.139 406.501 396.803 372.838 364.949 357.575 480.376 354.673 341.348 509.916 341.226 323.997 324.133 314.38 536.498 493.726 339.451 312.855 287.704 371.426 285.861 270.183 253.245 252.611 250.045 454.796
threshold=0.25279074907302862 -1.2474264502525327 0.31557108461856848 0.27243526279926306 -1.0281347036361692 -0.61000776290893544 0.019748737104237083 -3.10182774066925 -0.61350530385971058 -2.1798244714736934 -4.8035571575164786 2.2163877487182622 4.1696288585662851 1.6901697516441347 1.5194377899169924 1.5462980866432192 0.70680630207061779 0.12945607304573062 1.6215972900390627 4.5362806320190439 4.0026712417602548 1.3451172113418581 -0.31728056073188776 -0.24831050634384152 1.4925556778907778 2.436905145645142 0.44150185585021978 1.4551005959510805 -3.6019077301025386 1.1429042220115664
decision_type=2 2 2 2 2 2 2 2 2 2 2 2 2 2 2 2 2 2 2 2 2 2 2 2 2 2 2 2 2 2
left_child=1 7 4 11 12 8 17 9 -5 10 -1 22 28 -14 -6 -11 -17 20 24 21 -4 -20 23 -3 -19 -8 -27 -23 29 -2
right_child=2 3 6 5 14 -7 25 -9 -10 15 -12 -13 13 -15 -16 16 -18 18 19 -21 -22 27 -24 -25 -26 26 -28 -29 -30 -31
leaf_value=-0.12768901953010919 -0.012276518935143019 -0.00096938069202961064 0.00098892160221252206 -0.00082437833431831236 -0.002918495549557179 0.00072029244618511997 -0.0010053477922831032 0.002899894376910842 0.0042732040548871583 -0.005415450679360302 -0.02172223679460783 -0.0059498866124329539 0.012503090590250128 0.1959288983082948 -0.0070240147714189273 -0.00012835100632782866 0.12500209610108945 0.00021375753156250874 0.0073318885808727717 0.12412524709742297 -0.011524293427813104 0.019717613909144893 -0.00089105607330605674 0.0015968053229941928 0.0076116822052673012 -0.0010854482323304976 -0.020383321016282922 0.061496940946203477 9.5404088699865266e-05 -0.15803450943319691
leaf_weight=128.76793396472931 2660.7906771302223 245152.55036526918 166312.32558843493 44204.580595314503 568854.12782618403 659029.78897869587 221018.98709437251 457214.0675957799 170679.01098352671 9484.8790929019451 631.22116553783417 29157.424702703953 122.4932314157486 54.858026385307312 55553.770190238953 112.11488890647888 96.125626921653748 28459.379837989807 2018.6394935250282 117.97720915079117 5602.317491620779 844.80326461791992 1017185.318720907 331914.36157259345 24129.031738758087 3270.6842569708824 3540.1956976652145 632.81261229515076 156678.78775382042 54.615465462207794
leaf_count=60 2028 127637 93877 24619 317741 362168 115145 225840 102486 5956 359 14881 87 20 35648 42 42 15854 1118 62 3324 195 514870 186219 5107 2314 1144 131 84394 29
internal_value=0 0.000551927 -0.00160309 0.000152204 -0.00263333 0.00133606 0.00016835 0.00268643 0.00322456 -0.00665038 -0.0396766 -0.000485088 -8.81659e-05 0.0692401 -0.00328376 -0.00406096 0.0576329 0.00164245 0.00488881 0.0235231 0.000581144 0.0201284 -0.000385141 0.000506625 0.00360813 -0.00130761 -0.0111162 0.0376103 -0.000165305 -0.0152082
internal_weight=0 2.96499e+06 1.23993e+06 2.49732e+06 783979 873913 455947 467667 214884 10453.1 759.989 1.62341e+06 159572 177.351 624408 9693.12 208.241 228117 56202.6 3614.23 171915 3496.26 1.59425e+06 577067 52588.4 227830 6810.88 1477.62 159394 2715.41
internal_count=2243397 1565179 678218 1332880 439947 489273 238271 232299 127105 6459 419 843607 86558 107 353389 6040 84 119668 22467 1506 97201 1444 828726 313856 20961 118603 3458 326 86451 2057
is_linear=0
shrinkage=0.05


Tree=20
num_leaves=31
num_cat=0
split_feature=39 60 40 3 58 0 74 6 68 8 60 0 24 32 6 63 63 24 17 7 0 6 34 63 24 2 17 39 9 64
split_gain=2474.72 1465.28 1403.55 1161.98 5766.71 1539.12 1197.69 1052.52 1016.89 944.37 877.979 870.299 1337.31 1077.7 779.084 741.751 723.116 862.419 695.786 679.724 1004.28 799.19 674.964 948.368 659.276 656.986 833.293 945.202 634.27 1028.56
threshold=-0.14433250576257703 -2.7630223035812373 3.1420482397079472 -2.6681965589523311 2.6080061197280888 699.50000000000011 1.3744418621063235 -0.40060359239578242 2.1027438640594487 3.5758578777313237 4.3418073654174814 59.500000000000007 1.2927685379981997 -0.27693048119544977 0.44531835615634924 -0.95652940869331349 -1.0565982460975645 1.7890171408653261 -0.34243574738502497 4.8285326957702646 636.50000000000011 -1.8085459470748899 2.0046665668487553 0.45685414969921118 1.5237782001495364 1.9948514103889468 2.7142661809921269 3.2909756898880009 -3.8410382270812984 0.78168511390686046
decision_type=2 2 2 2 2 2 2 2 2 2 2 2 2 2 2 2 2 2 2 2 2 2 2 2 2 2 2 2 2 2
left_child=2 25 3 4 22 6 -6 11 9 14 -7 12 -3 16 -5 -15 18 -18 -14 -11 -21 -22 -1 -24 -20 26 -2 -28 29 -16
right_child=1 7 -4 8 5 10 -8 -9 -10 19 -12 -13 13 15 28 -17 17 -19 24 20 21 -23 23 -25 -26 -27 27 -29 -30 -31
leaf_value=0.0078833362479526492 -0.01040832584500017 0.0033216104469052914 -0.13583237140157234 -0.00097667031102007342 -0.16185276058303885 0.045197741954270815 0.079567343371558547 -0.00022755264097530978 -0.0071404827955060301 -0.0092403998707020745 0.1875313196387472 0.001412230689182535 0.02030194312053531 -0.18846794477329742 0.0065442406848087251 -0.019337535477558399 0.032095701786685964 0.006907016290410602 0.0030276510379157518 -0.023775194999659421 -0.21196719056806948 -0.060607887580317425 -0.0069452253707890047 -0.10152658538850974 0.081227953431921351 0.0084775346103367014 -0.030847566496847591 -0.16892061490682508 -0.0033320391102705498 0.10904763434066117
leaf_weight=4508.3458154201508 34839.727338790894 63027.302575528622 195.96520304679871 1183245.2512877285 62.802374184131622 130.92459577322006 282.29200011491776 1639103.6689834893 94577.537807255983 15014.885027527809 628.22592407464981 797986.0880612731 1784.8316164016724 69.326963424682617 1024.3560143113136 998.68654417991638 5479.472473859787 8946.5347547531128 338.59165143966675 2213.7388108372688 129.79188758134842 265.83107662200928 981.78173702955246 363.04145783185959 1321.1836214065552 4691.6151363253593 450.91043418645859 170.93930351734161 552705.38198366761 321.55803775787354
leaf_count=2717 21395 38348 75 667998 29 64 154 883888 50916 9271 305 432395 406 18 546 273 1461 2013 81 1380 67 168 596 206 296 2949 302 46 310901 234
internal_value=0 0.000370246 -0.00202761 -0.00201349 0.0183818 0.123185 0.0356322 0.000521295 -0.00209021 -0.00181803 0.162984 0.00191619 0.00682251 0.0184734 -0.00170121 -0.0303161 0.0213893 0.0164745 0.0419722 -0.0133338 -0.0368884 -0.110264 -0.00139006 -0.0324779 0.0652752 -0.00910599 -0.0114323 -0.0688023 -0.00324856 0.0310338
internal_weight=0 2.55921e+06 1.85665e+06 1.85646e+06 6957.41 1104.24 345.094 2.51906e+06 1.8495e+06 1.75492e+06 759.151 879952 81965.9 18938.6 1.7373e+06 1068.01 17870.6 14426 3444.61 17624.2 2609.36 395.623 5853.17 1344.82 1659.78 40153.2 35461.6 621.85 554051 1345.91
internal_count=2429498 1383871 1045627 1045552 4071 552 183 1359179 1041481 990565 369 475291 42896 4548 979679 291 4257 3474 783 10886 1615 235 3519 802 377 24692 21743 348 311681 780
is_linear=0
shrinkage=0.05


Tree=21
num_leaves=31
num_cat=0
split_feature=39 60 40 3 58 0 30 6 9 51 55 0 55 0 12 72 24 24 10 0 24 32 19 62 63 6 80 63 24 30
split_gain=2234.54 1316.81 1255.56 1131.48 5127.85 1389.05 1253.42 972.818 926.89 822.22 806.706 795.674 1021.9 1556.26 1756.91 837.386 914.183 774.416 831.362 758.032 1388.08 815.229 751.222 1101.1 700.82 687.316 792.302 679.22 730.697 746.592
threshold=-0.17179287970066068 -3.1435019969940181 3.1420482397079472 -2.6681965589523311 2.6080061197280888 699.50000000000011 -1.0122889280319212 -0.40060359239578242 4.9659094810485849 -1.1968683600425718 -0.57501721382141102 747.50000000000011 -2.7270805835723873 702.50000000000011 1.5000000000000002 2.7394279241561894 0.73002988100051891 -0.65235742926597584 -0.30192413926124567 52.500000000000007 1.2927685379981997 -0.27693048119544977 3.5079327821731572 -2.1505222320556636 2.0487064123153691 0.43430715799331671 4.4538919925689706 -1.0565982460975645 1.7890171408653261 -0.13814926892518994
decision_type=2 2 2 2 2 2 2 2 2 2 2 2 2 2 2 2 2 2 2 2 2 2 2 2 2 2 2 2 2 2
left_child=2 22 3 4 -1 6 -6 19 11 -7 -8 12 13 -5 -15 17 -17 -13 24 20 -3 27 -2 -24 -19 -14 -27 -22 29 -29
right_child=1 7 -4 8 5 9 10 -9 -10 -11 -12 15 25 14 -16 16 -18 18 -20 -21 21 -23 23 -25 -26 26 -28 28 -30 -31
leaf_value=-0.0009448741523187485 -0.009776609170275799 0.0028423766725776487 -0.12880944834817801 0.005488250908069996 -0.11336542995334874 0.067721766293649302 -0.059018207911025924 -0.00027523074465555966 -0.016383748911293877 0.18591748105939915 0.14918758860153461 0.00083469311031917454 -0.00083572546865940279 0.23571294627261175 0.050534334738940138 -0.013187812315350567 -0.063236910929042295 -0.0090331988564775201 -0.001377866638653152 0.0013150947777873555 0.04228389803933047 -0.025275765045024157 -0.15464944142914022 0.00033965007636034008 0.01588392599203689 -0.0029746325300323913 -0.034861501082893966 0.072110753498720342 0.0073655365140077979 0.022446953634606012
leaf_weight=5555.4276211261749 25302.973806470633 58949.946541130543 195.08121871948242 2274.5754851102829 101.89469689130783 199.63749545812607 62.675367712974548 1692099.1538947225 11179.687282919884 559.5130243897438 180.524309694767 58693.502525120974 1025288.236942023 157.18441653251648 691.9605268239975 4128.8338300585747 1171.2031943798065 110224.48225837946 67326.244218587875 832626.99205976725 3176.0255532264709 987.12636613845825 221.10272771120071 237.89128595590591 2896.1041775941849 496042.22429767251 1955.7608926296234 923.46201539039612 8259.7932200431824 4191.3692469596863
leaf_count=3333 15983 35864 74 1298 44 102 32 913992 6687 267 107 56248 579517 54 381 3282 316 44403 29038 451872 720 267 117 118 1153 279369 1645 256 1857 1102
internal_value=0 0.000322116 -0.00196903 -0.0019552 0.0186159 0.117025 0.0338506 0.000433521 -0.00203207 0.154835 0.0955305 -0.00194147 -0.00151734 0.0270516 0.0848126 -0.00458994 -0.0242477 -0.00415427 -0.00577702 0.00175269 0.00651628 0.0188654 -0.0109266 -0.0743204 -0.00839527 -0.00157592 -0.00309986 0.0214981 0.0165622 0.0314136
internal_weight=0 2.62698e+06 1.78888e+06 1.78869e+06 6659.67 1104.24 345.094 2.60121e+06 1.78203e+06 759.151 243.2 1.77085e+06 1.52641e+06 3123.72 849.145 244440 5300.04 239140 180447 909115 76487.7 17537.8 25762 458.994 113121 1.52329e+06 497998 16550.7 13374.6 5114.83
internal_count=2429498 1422148 1007350 1007276 3885 552 183 1405930 1003391 369 139 996704 862264 1733 435 134440 3598 130842 74594 491938 40066 4202 16218 235 45556 860531 281014 3935 3215 1358
is_linear=0
shrinkage=0.05


Tree=22
num_leaves=31
num_cat=0
split_feature=39 60 40 3 58 0 30 68 6 8 4 60 0 24 32 55 6 63 34 63 30 63 2 2 19 52 7 0 6 49
split_gain=2022.8 1219.45 1143.93 944.476 4699.14 1253.62 1131.21 863.153 860.75 822.21 745.004 737.662 729.403 1107.95 920.471 728.052 641.543 627.71 609.037 855.844 609.012 1054.35 756.965 595.436 788.602 796.744 593.087 909.296 719.146 532.191
threshold=-0.14433250576257703 -2.7630223035812373 3.1420482397079472 -2.6681965589523311 2.6080061197280888 699.50000000000011 -1.0122889280319212 2.1027438640594487 -0.35648472607135767 3.5758578777313237 1.3528789281845095 4.3418073654174814 59.500000000000007 1.2927685379981997 -0.27693048119544977 -0.57501721382141102 0.44531835615634924 -1.0703898668289182 2.0046665668487553 0.45685414969921118 -0.060866383835673325 0.831882804632187 -0.69165208935737599 1.9948514103889468 3.5079327821731572 -0.77198517322540272 4.8285326957702646 636.50000000000011 -1.8085459470748899 -3.6271169185638423
decision_type=2 2 2 2 2 2 2 2 2 2 2 2 2 2 2 2 2 2 2 2 2 2 2 2 2 2 2 2 2 2
left_child=2 23 3 4 18 6 10 9 12 16 -6 -7 13 -3 20 -8 -5 -16 -1 -20 21 22 -15 24 -2 -26 -11 -28 -29 -18
right_child=1 8 -4 7 5 11 15 -9 -10 26 -12 -13 -14 14 17 -17 29 -19 19 -21 -22 -23 -24 -25 25 -27 27 28 -30 -31
leaf_value=0.0075290212481890191 -0.0096568936677535241 0.0029906688108808695 -0.12262926992021726 -0.00087130671112846207 0.049578732784716494 0.039128490367943379 -0.056067297429289724 -0.0065414283121428751 -0.00022770015345257755 -0.0085593242243870628 -0.22391827191958066 0.16959348159574161 0.0012476707294378992 0.13438693969251528 -0.17485068548349544 0.14172821006967298 -0.036233364525296956 -0.018249104376163689 -0.0065552210954563338 -0.096404456408934844 0.015424315554579843 -0.022847826652986819 0.044987491568069859 0.0084304955331922626 -0.21049053096282286 -0.043650853210995266 -0.021907619459079292 -0.20068044999385554 -0.057100886491882108 -0.0028608086039622694
leaf_weight=4508.3458154201508 34988.624844014645 64030.645359843969 195.96520304679871 1183245.2512877285 43.299616038799286 130.92459577322006 62.675367712974548 94577.537807255983 1598728.8366563916 15014.885027527809 58.595080852508545 628.22592407464981 837030.11144304276 268.4276819229126 68.29973316192627 180.524309694767 1197.2039763331413 1013.8940441608429 981.78173702955246 363.04145783185959 15378.358816385269 528.76718139648438 2008.3463294506073 4691.6151363253593 87.891799211502075 385.06043326854706 2213.7388108372688 129.79188758134842 265.83107662200928 552854.09205940366
leaf_count=2717 21511 38999 75 667998 17 64 32 50916 862136 9271 27 305 453414 65 17 107 868 278 596 206 3636 110 524 2949 30 202 1380 67 168 310813
internal_value=0 0.000335753 -0.00183213 -0.00181938 0.0165683 0.111174 0.0321581 -0.00188855 0.00047355 -0.00163779 -0.107697 0.147093 0.00169171 0.00615381 0.0166665 0.090754 -0.00152879 -0.0281326 -0.00127985 -0.0308105 0.0193327 0.0407559 0.0555275 -0.00830911 -0.0105238 -0.0746558 -0.012383 -0.0343853 -0.104205 -0.00293292
internal_weight=0 2.55921e+06 1.85665e+06 1.85646e+06 6957.41 1104.24 345.094 1.8495e+06 2.51906e+06 1.75492e+06 101.895 759.151 920327 83296.7 19266.1 243.2 1.7373e+06 1082.19 5853.17 1344.82 18183.9 2805.54 2276.77 40153.2 35461.6 472.952 17624.2 2609.36 395.623 554051
internal_count=2429498 1383871 1045627 1045552 4071 552 183 1041481 1359179 990565 44 369 497043 43629 4630 139 979679 295 3519 802 4335 699 589 24692 21743 232 10886 1615 235 311681
is_linear=0
shrinkage=0.05


Tree=23
num_leaves=31
num_cat=0
split_feature=47 49 0 26 6 52 30 79 4 73 47 44 49 39 12 66 60 3 32 19 13 6 69 38 48 60 49 66 58 0
split_gain=1838.64 1138.47 870.774 1787.49 1128.24 1697.13 1490.72 1350.74 1133.96 1105.67 762.318 744.717 1579.08 1082.16 1059.5 1699.17 1577.31 828.462 786.12 723.765 712.736 782.156 720.627 699.626 691.958 691.162 690.045 689.566 670.654 658.736
threshold=-0.10790947452187537 -3.6271169185638423 24.500000000000004 0.57512652873992931 -2.7376319169998165 1.7292565107345583 -1.0122889280319212 0.32747477293014532 1.6765288114547732 0.42322546243667608 1.1901557445526125 -2.4651690721511836 4.1737177371978769 0.7001631259918214 1.5000000000000002 0.16773360222578051 -3.1435019969940181 -0.27822667360305781 -0.22804222255945203 3.5079327821731572 69.000000000000014 -2.4534987211227413 1.1648960709571841 -2.772656917572021 -0.91851082444190968 -2.7630223035812373 -2.0993366241455074 2.086015105247498 -0.97808033227920521 648.50000000000011
decision_type=2 2 2 2 2 2 2 2 2 2 2 2 2 2 2 2 2 2 2 2 2 2 2 2 2 2 2 2 2 2
left_child=1 19 3 26 5 -4 7 9 29 -7 -6 12 13 14 15 -12 -17 -16 -15 20 21 22 -1 -22 -5 -3 -2 -14 -27 -8
right_child=2 25 4 24 10 6 8 -9 -10 -11 11 -13 27 18 17 16 -18 -19 -20 -21 23 -23 -24 -25 -26 28 -28 -29 -30 -31
leaf_value=0.028567911504747891 -0.048401379171078812 -0.0068470624906984334 -0.0040787867541338145 0.12765654364464221 -0.00087264559549172008 -0.21782000700596035 0.085510949500221978 0.078019818292243512 0.16529396826304324 0.0233594679521196 0.0062480028903918045 -0.0030750085935608881 0.048674822891468794 0.0079971631687604013 0.031181422978455171 0.0018496950351825623 0.17006998704804682 -0.012046846198293083 -0.087717239123544261 -0.1325245621789872 -0.0828187579426682 -0.00217325553491212 0.21680704635863024 -0.01952265372148786 0.0048271367285637199 0.0019718820848375587 -0.016778341261718923 0.19912427812754352 5.5358523858471156e-05 -0.025467602621389349
leaf_weight=144.66438686847687 1954.781900703907 30028.231517165899 1898.442655980587 116.00608974695206 1786442.9369889498 107.98711043596268 575.10188269615173 182.74372780323029 384.91172105073929 84.868103206157684 852.74820828437805 628093.45614916086 151.45363879203796 392.55272275209427 1753.6366137862206 208.04446768760681 422.01023387908936 3012.0635234117508 473.02073043584824 131.67999279499054 469.37473806738853 3137.9677432179451 78.395381331443787 6246.135479003191 9887.6001378893852 744995.1459544003 14680.900307148695 153.20158934593201 1178626.3074441254 174.21935921907425
leaf_count=90 1665 18097 1028 56 981032 36 297 113 216 35 316 361131 66 252 1122 70 137 1753 299 72 333 2556 42 4016 6202 379177 11752 72 657368 97
internal_value=0 0.000593082 -0.00146002 -0.0104506 -0.00136127 0.027386 0.0669495 -0.0193868 0.0955396 -0.111686 -0.00140173 -0.00288899 0.0128599 0.00808627 0.0153443 0.0522551 0.114524 0.00385988 -0.0443091 -0.0160611 -0.0145392 0.00425757 0.0947254 -0.0239467 0.00625152 0.000680104 -0.0204942 0.124331 0.000797605 0.0597081
internal_weight=0 1.96386e+06 2.452e+06 26639.3 2.42536e+06 3408.27 1509.83 375.599 1134.23 192.855 2.42196e+06 635512 7418.73 7114.08 6248.5 1482.8 630.055 4765.7 865.573 10208.2 10076.5 3361.03 223.06 6715.51 10003.6 1.95365e+06 16635.7 304.655 1.92362e+06 749.321
internal_count=2429498 1061751 1367747 19675 1348072 1822 794 184 610 71 1346250 365218 4087 3949 3398 523 207 2875 551 7109 7037 2688 132 4349 6258 1054642 13417 138 1036545 394
is_linear=0
shrinkage=0.05


Tree=24
num_leaves=31
num_cat=0
split_feature=39 60 40 44 3 19 32 6 68 18 49 8 0 13 63 63 0 7 32 0 6 76 22 22 36 0 30 7 58 68
split_gain=1702.04 1025.2 1012.4 839.737 1606.78 1396.23 782.252 779.355 733.765 723.764 704.579 641.23 617.735 730.944 1370.7 1129.61 808.958 696.171 655.78 612.278 610.453 590.281 940.938 967.259 1560.76 552.006 810 690.334 596.984 534.373
threshold=-0.14433250576257703 -3.1435019969940181 3.1420482397079472 -2.4651690721511836 -1.4896803498268125 0.014409674331545832 -0.10034988448023795 -0.48772092163562769 2.1027438640594487 3.9385951757431035 -2.8992099761962886 4.578712224960328 59.500000000000007 14.500000000000002 0.52684196829795849 0.45685414969921118 16.500000000000004 0.65444511175155651 -0.99718463420867909 20.500000000000004 0.44531835615634924 0.27941757440567022 1.0254139304161074 1.1821240186691286 -0.17583554238080976 768.50000000000011 -2.6549204587936397 -2.3620643615722652 1.9394636154174807 -0.042767614126205437
decision_type=2 2 2 2 2 2 2 2 2 2 2 2 2 2 2 2 2 2 2 2 2 2 2 2 2 2 2 2 2 2
left_child=2 9 3 4 5 -1 -7 12 10 25 19 20 13 14 15 16 17 -3 -16 -5 -12 -6 -23 24 -24 26 -2 -27 -28 -15
right_child=1 7 -4 8 21 6 -8 -9 -10 -11 11 -13 -14 29 18 -17 -18 -19 -20 -21 -22 22 23 -25 -26 27 28 -29 -30 -31
leaf_value=0.025634971606858743 0.10251126420924186 0.06755924208877355 -0.11531288665684472 -0.056293336780535767 -0.0073234724986983527 0.17836185896668061 0.043516069341792391 -0.00018216953345606446 -0.0060304142625750828 -0.10564568084420356 -0.00075131869716775924 -0.014680553809988712 0.0012420070528607078 0.0050360021880928325 -0.1219081011836112 0.10442016286165157 0.012586905014884665 0.01533364227233943 -0.0086903206389502535 -0.0093351478617190991 -0.0027617533398752057 0.0047401103176061225 -0.030230189694730854 0.019510647048788687 0.19725402401984438 0.04885759738799416 -0.011919989160165867 -0.0029101763601471578 -0.10548659855799898 -0.013102485024704397
leaf_weight=830.46308791637421 153.74670737981796 1527.4126597642899 195.96520304679871 1054.0145987272263 4240.770909845829 317.82169103622437 162.56058460474014 1726728.4794484675 94252.711104422808 194.74953585863113 1187825.4523037374 9123.5270447731018 727049.96765685081 63546.857480674982 134.79955303668976 441.85952389240265 6160.3844674825668 1095.9498237371445 2498.6192738413811 2033.2866230607033 553541.55453231931 2251.7490970492363 107.79854416847229 463.15410089492798 250.88161516189575 844.60870224237442 21610.676199346781 2711.23663854599 171.83059078454971 4337.7011966705322
leaf_count=414 72 582 75 804 2297 160 150 931831 50734 104 670270 5619 394180 33791 51 158 2318 359 881 1691 311463 1718 32 128 72 589 13691 1653 69 3542
internal_value=0 0.000316503 -0.00167209 -0.00166009 0.0139048 0.0648819 0.13273 0.000417269 -0.00173274 -0.00962217 -0.00150175 -0.00145966 0.00170021 0.00587778 0.0173309 0.0264129 0.0224888 0.0457412 -0.0144857 -0.0253668 -0.00139039 0.0047689 0.0214533 0.067246 0.128885 -0.00888859 -0.0118509 0.00938606 -0.0126581 0.00387699
internal_weight=0 2.55921e+06 1.85665e+06 1.85646e+06 8625.2 1310.85 480.382 2.53352e+06 1.84783e+06 25686.8 1.75358e+06 1.75049e+06 806794 79743.6 11859 9225.61 8783.75 2623.36 2633.42 3087.3 1.74137e+06 7314.35 3073.58 821.834 358.68 25492.1 21936.3 3555.85 21782.5 67884.6
internal_count=2429498 1383871 1045627 1045552 4971 724 310 1367693 1040581 16178 989847 987352 435862 41682 4349 3417 3259 941 932 2495 981733 4247 1950 232 104 16074 13832 2242 13760 37333
is_linear=0
shrinkage=0.05


Tree=25
num_leaves=31
num_cat=0
split_feature=58 6 0 7 51 68 6 52 0 0 30 4 27 74 63 19 6 66 27 72 66 24 32 75 30 67 80 8 32 73
split_gain=1579.55 841.408 811.112 870.366 795.239 761.242 514.455 1935.62 975.562 1064.85 1675.21 1012.33 611.784 539.248 608.494 509.503 497 494.741 482.603 479.954 685.961 2294.42 621.719 612.833 454.313 438.614 438.557 437.697 423.685 455.499
threshold=-0.72409936785697926 0.44531835615634924 4.5000000000000009 -1.9131213426589964 -3.6410671472549434 2.0357551574707036 -2.7376319169998165 1.806969225406647 699.50000000000011 609.50000000000011 -1.0122889280319212 1.6515487432479861 2.7742089033126835 2.2642577886581425 0.52684196829795849 3.5079327821731572 0.33498913049697882 -0.059269510209560387 -0.94125592708587635 0.099606730043888106 2.086015105247498 -0.13720065355300901 -0.89416119456291188 5.0450778007507333 -1.0671394467353819 -0.91894966363906849 0.97458213567733776 3.5758578777313237 -0.36491607129573816 -0.098061792552471147
decision_type=2 2 2 2 2 2 2 2 2 2 2 2 2 2 2 2 2 2 2 2 2 2 2 2 2 2 2 2 2 2
left_child=4 5 3 -3 15 6 7 12 9 -9 -11 -12 13 -2 24 18 25 -14 -1 23 -21 22 -22 -4 -15 28 -23 -8 29 -6
right_child=1 2 19 -5 16 -7 27 8 -10 10 11 -13 17 14 -16 -17 -18 -19 -20 20 21 26 -24 -25 -26 -27 -28 -29 -30 -31
leaf_value=-0.041217170654351022 0.0039326260551374144 -0.10241321944607731 -0.0013047535826234274 -0.018491808498315793 0.0039735239178584269 -0.0050415490443023753 -0.00030744404230176732 0.081697406710612555 0.15976204560972715 -0.19876925337600665 -0.054132586248328923 0.14327755886828916 0.030145874953254999 0.075750088280360409 0.089822370952623354 -0.14479449153001878 -4.2069070214766394e-05 0.23010111583076664 -0.0078699096765434701 -0.0039093968604656379 0.1245823794004572 0.050985202911913677 0.0025131675277743604 -0.025990432886376782 -0.076118525531939707 0.0017091325197536916 0.19787672690017807 -0.0097682317727684539 0.0012845555964298887 0.015012829522183102
leaf_weight=1271.3739238679409 5787.4650294184685 353.64371085166931 697321.2008818388 2444.961820602417 18657.619332134724 88633.900643527508 2162410.0007179081 742.67578822374344 234.99644333124161 98.553146481513977 131.53130257129669 128.27583688497543 78.64733350276947 54.412520825862885 74.929718017578125 73.685921728610992 436183.7621987164 50.992520332336426 7399.1883520483971 336597.20341861248 108.0305415391922 68.526347637176514 3027.9005503356457 2523.2522157430649 518.49927031993866 592648.81304144859 196.57244992256165 12294.786086857319 27025.789569079876 18719.399865031242
leaf_count=1228 3428 216 378288 1410 9616 48056 1206890 379 135 45 69 75 29 40 49 47 228219 20 4617 196874 103 26 3712 2113 320 311963 72 7572 15513 8374
internal_value=0 -0.00103894 -0.00221483 -0.0290965 0.00114625 -0.000499126 -0.000314661 0.0124208 0.0672796 0.0475409 -0.0232459 0.0433357 0.00125652 -0.000909878 -0.0441702 -0.0138723 0.00126638 0.108796 -0.0127597 -0.00214248 -0.00368364 0.0186588 0.00671836 -0.00139376 -0.0616947 0.00213499 0.159906 -0.000360931 0.00605383 0.0095023
internal_weight=0 3.31388e+06 1.04264e+06 2798.61 1.10198e+06 2.27124e+06 2.18261e+06 7900.98 1336.03 1101.04 358.36 259.807 6564.95 6435.31 647.842 8744.25 1.09324e+06 129.64 8670.56 1.03984e+06 339998 3401.03 3135.93 699844 572.912 657052 265.099 2.1747e+06 64402.8 37377
internal_count=2429498 1849921 582814 1626 579577 1267107 1219051 4589 703 568 189 144 3886 3837 409 5892 573685 49 5845 581188 200787 3913 3815 380401 360 345466 98 1214462 33503 17990
is_linear=0
shrinkage=0.05


Tree=26
num_leaves=31
num_cat=0
split_feature=47 49 0 26 6 52 0 0 12 22 68 75 0 10 40 6 18 32 27 72 25 38 48 55 72 44 66 49 25 58
split_gain=1469.24 942.038 760.146 1604.78 895.388 1418.58 1048.24 1169.89 1547.18 738.461 715.571 690.354 685.676 635.771 616.264 580.028 576.273 569 720.379 634.368 673.229 553.766 552.095 528.555 521.799 564.557 1004.19 770.822 739.332 592.913
threshold=-0.15119251608848569 -3.6271169185638423 24.500000000000004 0.57512652873992931 -2.7376319169998165 1.7292565107345583 699.50000000000011 609.50000000000011 4.5000000000000009 1.2465313673019411 2.1027438640594487 0.067363344132900252 690.50000000000011 0.083897795528173461 1.4661772251129153 -0.281252771615982 0.049003295600414283 0.1626764386892319 0.74810352921485912 0.033144857734441764 1.7106862068176272 1.3444852828979494 -0.91851082444190968 -1.946141719818115 0.084843255579471602 -2.4651690721511836 2.086015105247498 0.97307908535003673 0.24162586778402331 2.0912727117538457
decision_type=2 2 2 2 2 2 2 2 2 2 2 2 2 2 2 2 2 2 2 2 2 2 2 2 2 2 2 2 2 2
left_child=1 9 3 14 5 -4 7 -7 11 16 15 -9 -10 22 17 -6 -1 19 -19 21 -21 -2 -5 -3 -17 26 28 -28 -26 -29
right_child=2 23 4 13 10 6 -8 8 12 -11 -12 -13 -14 -15 -16 24 -18 18 -20 20 -22 -23 -24 -25 25 -27 27 29 -30 -31
leaf_value=-0.0046776394621015583 -0.02943531576764559 -0.0040092289963755273 -0.0039944073801924992 0.13637930621706654 -9.4391048926130764e-05 0.076522623974062842 0.14332616867525641 -0.21961024376157159 -0.080766753912304728 -0.07250018460085654 -0.0052913251183643525 -0.044801233306583504 0.13491248954061036 -0.013105025070052746 -0.081813115366545064 -0.0009749348618374714 -0.033627924100987042 -0.003168576097750197 0.12367970372147047 -0.054643775698574509 -0.2272732791424964 -0.0087013607627934881 0.01214755688469722 0.00081430945503828574 -0.014556211509560504 -0.0032070794821042596 0.027997127590657946 -0.001304848228024304 0.019029800640924615 0.18506461424685955
leaf_weight=7293.2166990935802 6952.9254778623581 58616.166687250137 1942.1060215234756 90.523520708084106 980678.86376866698 772.48337465524673 305.53157359361649 90.69504189491272 49.625061273574829 523.37018442153931 102642.12330308557 149.70374035835266 143.15053141117096 3155.0952978134155 381.83982276916504 916789.55460858345 2249.0215560495853 3059.8808156847954 116.1758633852005 478.50668299198151 64.035129308700562 5998.7325208485126 7410.4509091377258 1826520.2445027232 2803.8002707362175 482005.74137023091 395.18048214912415 55.605685174465179 3942.7104163765907 183.52957957983017
leaf_count=4913 5479 34614 1052 44 544550 394 173 28 32 206 55408 83 85 2073 236 496108 1898 2758 68 322 23 4789 4444 983124 2115 282436 513 58 1370 102
internal_value=0 0.000582871 -0.00125976 -0.00949573 -0.00116822 0.0242742 0.0606035 0.0396404 -0.026132 -0.0146727 -0.00120352 -0.110751 0.0793915 0.00572601 -0.019008 -0.00102773 -0.011501 -0.0175694 0.00147136 -0.0220509 -0.0750189 -0.0198321 0.0136468 0.000664327 -0.00167864 -0.00299693 0.0107268 0.0708735 0.0050717 0.141728
internal_weight=0 1.8952e+06 2.52066e+06 27708.2 2.49295e+06 3453.3 1511.19 1205.66 433.174 10065.6 2.4895e+06 240.399 192.776 10656.1 17052.1 2.38685e+06 9542.24 16670.3 3176.06 13494.2 542.542 12951.7 7500.97 1.88514e+06 1.40618e+06 489387 7380.83 634.316 6746.51 239.135
